{"learner":{"attributes":{"scikit_learn":"{\"_estimator_type\": \"classifier\"}"},"feature_names":[],"feature_types":[],"gradient_booster":{"model":{"gbtree_model_param":{"num_parallel_tree":"1","num_trees":"100"},"iteration_indptr":[0,1,2,3,4,5,6,7,8,9,10,11,12,13,14,15,16,17,18,19,20,21,22,23,24,25,26,27,28,29,30,31,32,33,34,35,36,37,38,39,40,41,42,43,44,45,46,47,48,49,50,51,52,53,54,55,56,57,58,59,60,61,62,63,64,65,66,67,68,69,70,71,72,73,74,75,76,77,78,79,80,81,82,83,84,85,86,87,88,89,90,91,92,93,94,95,96,97,98,99,100],"tree_info":[0,0,0,0,0,0,0,0,0,0,0,0,0,0,0,0,0,0,0,0,0,0,0,0,0,0,0,0,0,0,0,0,0,0,0,0,0,0,0,0,0,0,0,0,0,0,0,0,0,0,0,0,0,0,0,0,0,0,0,0,0,0,0,0,0,0,0,0,0,0,0,0,0,0,0,0,0,0,0,0,0,0,0,0,0,0,0,0,0,0,0,0,0,0,0,0,0,0,0,0],"trees":[{"base_weights":[-0E0,-1.1935484E0,1.2333333E0,8.5714287E-1,-1.4035088E0,1.7872341E0,-6.666667E-1,-0E0,3.6E-1,-1.5229357E0,2.0000002E-1,5.710843E-1,6.666667E-1,2.7272728E-1,-1.3043479E0,-0E0,-4.7428575E-1,-0E0,3.3333337E-1,-4.7368425E-1,-0E0],"categories":[],"categories_nodes":[],"categories_segments":[],"categories_sizes":[],"default_left":[0,0,0,0,0,0,0,0,0,0,0,0,0,0,0,0,0,0,0,0,0],"id":0,"left_children":[1,3,5,7,9,11,13,-1,-1,15,-1,-1,17,-1,19,-1,-1,-1,-1,-1,-1],"loss_changes":[8.9794624E1,1.4550491E1,3.276383E1,1.0285714E0,8.061485E0,1.7956085E0,8.722003E0,0E0,0E0,2.407692E0,0E0,0E0,1.111111E0,0E0,2.059496E0,0E0,0E0,0E0,0E0,0E0,0E0],"parents":[2147483647,0,0,1,1,2,2,3,3,4,4,5,5,6,6,9,9,12,12,14,14],"right_children":[2,4,6,8,10,12,14,-1,-1,16,-1,-1,18,-1,20,-1,-1,-1,-1,-1,-1],"split_conditions":[-4.8655125E-1,-4.771507E-1,4.364168E-1,-2.6665148E-1,-2.975993E-1,2.556585E-1,4.3853325E-1,-0E0,3.6E-1,-8.8725495E-1,2.0000002E-1,5.710843E-1,1.1129072E0,2.7272728E-1,1.9156775E-1,-0E0,-4.7428575E-1,-0E0,3.3333337E-1,-4.7368425E-1,-0E0],"split_indices":[5,2,1,0,7,1,0,0,0,3,0,0,0,0,3,0,0,0,0,0,0],"split_type":[0,0,0,0,0,0,0,0,0,0,0,0,0,0,0,0,0,0,0,0,0],"sum_hessian":[5.9E1,3E1,2.9E1,2.5E0,2.75E1,2.25E1,6.5E0,1E0,1.5E0,2.625E1,1.25E0,1.975E1,2.75E0,1.75E0,4.75E0,1E0,2.525E1,1.5E0,1.25E0,3.75E0,1E0],"tree_param":{"num_deleted":"0","num_feature":"9","num_nodes":"21","size_leaf_vector":"1"}},{"base_weights":[1.49242375E-2,-8.8014275E-1,9.5285136E-1,2.5890082E-1,-1.035159E0,1.4276463E0,-4.2437652E-1,-1.131161E0,1.6770284E-1,4.450517E-1,1.7643183E-1,-8.944056E-1,2.4336527E-1,-7.860561E-1,-4.3351233E-1,-1.9410921E-2,-3.9451626E-1,-1.2695819E0,4.829243E-1,1.1271104E-2,-4.21624E-1],"categories":[],"categories_nodes":[],"categories_segments":[],"categories_sizes":[],"default_left":[0,0,0,0,0,0,0,0,0,0,0,0,0,0,0,0,0,0,0,0,0],"id":1,"left_children":[1,3,5,-1,7,9,11,13,-1,-1,-1,15,-1,17,-1,-1,-1,19,-1,-1,-1],"loss_changes":[4.850254E1,8.884062E0,1.9048735E1,0E0,4.8580494E0,1.2187195E-1,5.3725457E0,1.7209549E0,0E0,0E0,0E0,2.103952E0,0E0,1.9136196E1,0E0,0E0,0E0,2.3318844E0,0E0,0E0,0E0],"parents":[2147483647,0,0,1,1,2,2,4,4,5,5,6,6,7,7,11,11,13,13,17,17],"right_children":[2,4,6,-1,8,10,12,14,-1,-1,-1,16,-1,18,-1,-1,-1,20,-1,-1,-1],"split_conditions":[-4.8655125E-1,-6.3485503E-1,3.6763707E-1,2.5890082E-1,-2.975993E-1,2.556585E-1,-7.475239E-2,9.85073E-2,1.6770284E-1,4.450517E-1,1.7643183E-1,-2.9656267E-1,2.4336527E-1,-4.2533794E-1,-4.3351233E-1,-1.9410921E-2,-3.9451626E-1,-5.980675E-1,4.829243E-1,1.1271104E-2,-4.21624E-1],"split_indices":[5,2,1,0,7,1,7,1,0,0,0,5,0,0,0,0,0,3,0,0,0],"split_type":[0,0,0,0,0,0,0,0,0,0,0,0,0,0,0,0,0,0,0,0,0],"sum_hessian":[5.577601E1,2.8571623E1,2.7204388E1,1.960359E0,2.6611265E1,2.0202894E1,7.0014925E0,2.5373682E1,1.2375829E0,1.8223349E1,1.9795465E0,5.272085E0,1.729407E0,1.3754837E1,1.1618845E1,2.1618304E0,3.110255E0,1.1836127E1,1.9187095E0,1.1822579E0,1.065387E1],"tree_param":{"num_deleted":"0","num_feature":"9","num_nodes":"21","size_leaf_vector":"1"}},{"base_weights":[2.1445999E-2,-7.659333E-1,7.40819E-1,6.4783186E-1,-9.4462734E-1,1.2059374E0,-4.5334712E-1,1.2400867E-2,2.8542683E-1,-6.6693133E-1,-3.7934387E-1,5.5587447E-1,3.9630517E-1,2.189435E-1,-8.664586E-1,-1.137748E0,3.39784E-1,3.2001552E-1,-9.014143E-2,-3.41955E-1,5.898481E-2,-4.2643163E-1,-3.7771773E-1,-2.2409636E-1,2.333383E-2],"categories":[],"categories_nodes":[],"categories_segments":[],"categories_sizes":[],"default_left":[0,0,0,0,0,0,0,0,0,0,0,0,0,0,0,0,0,0,0,0,0,0,0,0,0],"id":2,"left_children":[1,3,5,7,9,11,13,-1,-1,15,-1,17,-1,-1,19,21,-1,-1,-1,-1,-1,23,-1,-1,-1],"loss_changes":[2.927886E1,6.850047E0,1.5541576E1,5.8007205E-1,1.1399269E0,7.396145E-1,4.686441E0,0E0,0E0,1.3207783E1,0E0,2.3721254E0,0E0,0E0,2.1437593E0,4.683361E-1,0E0,0E0,0E0,0E0,0E0,5.76836E-1,0E0,0E0,0E0],"parents":[2147483647,0,0,1,1,2,2,3,3,4,4,5,5,6,6,9,9,11,11,14,14,15,15,21,21],"right_children":[2,4,6,8,10,12,14,-1,-1,16,-1,18,-1,-1,20,22,-1,-1,-1,-1,-1,24,-1,-1,-1],"split_conditions":[-5.208115E-1,-4.771507E-1,3.6763707E-1,-5.9797496E-1,1.513927E0,-4.9775165E-1,4.3853325E-1,1.2400867E-2,2.8542683E-1,2.7512798E-1,-3.7934387E-1,-3.518106E-1,3.9630517E-1,2.189435E-1,1.9156775E-1,-5.980675E-1,3.39784E-1,3.2001552E-1,-9.014143E-2,-3.41955E-1,5.898481E-2,-1.6713743E-1,-3.7771773E-1,-2.2409636E-1,2.333383E-2],"split_indices":[5,2,1,3,2,8,0,0,0,2,0,6,0,0,3,3,0,0,0,0,0,2,0,0,0],"split_type":[0,0,0,0,0,0,0,0,0,0,0,0,0,0,0,0,0,0,0,0,0,0,0,0,0],"sum_hessian":[4.9689373E1,2.3692436E1,2.5996937E1,2.3639915E0,2.1328444E1,1.8702574E1,7.294363E0,1.1675961E0,1.1963955E0,1.3067954E1,8.26049E0,3.689826E0,1.5012748E1,1.6893662E0,5.604997E0,1.0649478E1,2.418476E0,2.157268E0,1.532558E0,4.4009757E0,1.2040213E0,2.2094424E0,8.440036E0,1.0563568E0,1.1530856E0],"tree_param":{"num_deleted":"0","num_feature":"9","num_nodes":"25","size_leaf_vector":"1"}},{"base_weights":[2.24648E-2,-3.694026E-1,3.4222224E-1,5.1940378E-2,-9.324646E-1,-8.6109596E-1,8.0011904E-1,-3.4611526E-1,-1.7827438E-1,-3.547527E-1,2.0798719E-1,-5.245973E-3,1.1614625E0,1.5803126E-1,-2.5438768E-1,2.6561943E-1,-2.5059256E-1,3.9506552E-1,4.684053E-2],"categories":[],"categories_nodes":[],"categories_segments":[],"categories_sizes":[],"default_left":[0,0,0,0,0,0,0,0,0,0,0,0,0,0,0,0,0,0,0],"id":3,"left_children":[1,3,-1,5,7,9,11,-1,13,-1,-1,15,17,-1,-1,-1,-1,-1,-1],"loss_changes":[1.9734457E1,7.9702263E0,0E0,1.4382952E1,2.1879883E0,5.5710897E0,3.3632932E0,0E0,2.5414019E0,0E0,0E0,4.1169643E0,1.0393639E0,0E0,0E0,0E0,0E0,0E0,0E0],"parents":[2147483647,0,0,1,1,3,3,4,4,5,5,6,6,8,8,11,11,12,12],"right_children":[2,4,-1,6,8,10,12,-1,14,-1,-1,16,18,-1,-1,-1,-1,-1,-1],"split_conditions":[-3.583717E-2,8.284372E-1,3.4222224E-1,-9.006751E-1,-6.9397426E-1,-5.8989197E-1,-6.320377E-1,-3.4611526E-1,-3.2441667E-1,-3.547527E-1,2.0798719E-1,-8.190279E-1,-3.3886126E-1,1.5803126E-1,-2.5438768E-1,2.6561943E-1,-2.5059256E-1,3.9506552E-1,4.684053E-2],"split_indices":[7,0,0,0,4,7,1,0,8,0,0,0,8,0,0,0,0,0,0],"split_type":[0,0,0,0,0,0,0,0,0,0,0,0,0,0,0,0,0,0,0],"sum_hessian":[4.3072037E1,3.2391163E1,1.0680876E1,1.9046383E1,1.3344778E1,8.510145E0,1.0536239E1,9.908291E0,3.436487E0,7.250206E0,1.2599388E0,3.5684142E0,6.9678245E0,1.7780046E0,1.6584824E0,1.6892313E0,1.8791829E0,5.7664347E0,1.2013901E0],"tree_param":{"num_deleted":"0","num_feature":"9","num_nodes":"19","size_leaf_vector":"1"}},{"base_weights":[2.3066709E-2,-3.6115107E-1,9.047817E-1,-9.330265E-1,-5.7867825E-2,3.093911E-1,-4.117798E-2,1.7760161E-2,-3.2281682E-1,-8.750072E-1,4.69229E-1,-3.2957894E-1,8.703173E-2,9.7203046E-1,-3.5820603E-1,3.5869455E-1,3.0256236E-1,5.157297E-3,-2.3049606E-1,-4.087934E-2,1.7177528E-1,-2.1832173E-1,2.2163054E-1],"categories":[],"categories_nodes":[],"categories_segments":[],"categories_sizes":[],"default_left":[0,0,0,0,0,0,0,0,0,0,0,0,0,0,0,0,0,0,0,0,0,0,0],"id":4,"left_children":[1,3,5,7,9,-1,-1,-1,-1,11,13,-1,-1,15,17,-1,19,21,-1,-1,-1,-1,-1],"loss_changes":[1.310267E1,4.6256514E0,1.6882191E0,1.3812885E0,8.463656E0,0E0,0E0,0E0,0E0,2.3195367E0,5.3475304E0,0E0,0E0,7.9753876E-1,7.897102E-1,0E0,4.6641344E-1,2.5748587E0,0E0,0E0,0E0,0E0,0E0],"parents":[2147483647,0,0,1,1,2,2,3,3,4,4,9,9,10,10,13,13,14,14,16,16,17,17],"right_children":[2,4,6,8,10,-1,-1,-1,-1,12,14,-1,-1,16,18,-1,20,22,-1,-1,-1,-1,-1],"split_conditions":[-2.2652812E-1,-6.9397426E-1,1.2253901E0,1.1259074E0,-9.006751E-1,3.093911E-1,-4.117798E-2,1.7760161E-2,-3.2281682E-1,-2.810684E-1,-4.1272536E-1,-3.2957894E-1,8.703173E-2,-4.4225082E-1,3.28043E-1,3.5869455E-1,-3.3517605E-1,-5.301552E-1,-2.3049606E-1,-4.087934E-2,1.7177528E-1,-2.1832173E-1,2.2163054E-1],"split_indices":[7,4,0,0,0,0,0,0,0,6,4,0,0,3,0,0,3,5,0,0,0,0,0],"split_type":[0,0,0,0,0,0,0,0,0,0,0,0,0,0,0,0,0,0,0,0,0,0,0],"sum_hessian":[3.6712563E1,2.59813E1,1.0731261E1,8.284155E0,1.7697145E1,9.578563E0,1.1526984E0,1.1175517E0,7.1666036E0,6.6805215E0,1.1016624E1,5.652817E0,1.027705E0,6.7438726E0,4.272752E0,4.466118E0,2.277755E0,2.789057E0,1.4836946E0,1.0563625E0,1.2213925E0,1.3992124E0,1.3898447E0],"tree_param":{"num_deleted":"0","num_feature":"9","num_nodes":"23","size_leaf_vector":"1"}},{"base_weights":[1.7268382E-2,-2.8309172E-1,9.3212396E-1,7.105006E-2,-7.6408756E-1,1.02156945E-1,3.0408964E-1,-6.545366E-1,6.104016E-1,-2.8703263E-1,-1.938768E-1,-3.0045712E-1,1.241046E-1,-5.8465593E-2,9.2285913E-1,1.4748448E-1,-1.8108627E-1,1.9476864E-1,-2.1611388E-1,3.1778648E-1,3.6418624E-2],"categories":[],"categories_nodes":[],"categories_segments":[],"categories_sizes":[],"default_left":[0,0,0,0,0,0,0,0,0,0,0,0,0,0,0,0,0,0,0,0,0],"id":5,"left_children":[1,3,5,7,9,-1,-1,11,13,-1,15,-1,-1,17,19,-1,-1,-1,-1,-1,-1],"loss_changes":[9.1593075E0,4.336302E0,5.1893234E-2,6.423548E0,9.9507E-1,0E0,0E0,3.0259461E0,2.007436E0,0E0,1.4112651E0,0E0,0E0,2.3023472E0,5.74543E-1,0E0,0E0,0E0,0E0,0E0,0E0],"parents":[2147483647,0,0,1,1,2,2,3,3,4,4,7,7,8,8,10,10,13,13,14,14],"right_children":[2,4,6,8,10,-1,-1,12,14,-1,16,-1,-1,18,20,-1,-1,-1,-1,-1,-1],"split_conditions":[-3.583717E-2,8.284372E-1,-3.581612E-1,-9.006751E-1,-6.9397426E-1,1.02156945E-1,3.0408964E-1,-2.810684E-1,-6.320377E-1,-2.8703263E-1,-4.9437177E-1,-3.0045712E-1,1.241046E-1,-8.190279E-1,-3.3886126E-1,1.4748448E-1,-1.8108627E-1,1.9476864E-1,-2.1611388E-1,3.1778648E-1,3.6418624E-2],"split_indices":[7,0,3,0,4,0,0,6,1,0,7,0,0,0,8,0,0,0,0,0,0],"split_type":[0,0,0,0,0,0,0,0,0,0,0,0,0,0,0,0,0,0,0,0,0],"sum_hessian":[3.1372196E1,2.4137932E1,7.2342653E0,1.4393065E1,9.744866E0,1.5029994E0,5.731266E0,6.045937E0,8.347128E0,6.7768683E0,2.967998E0,4.6106915E0,1.4352455E0,2.9165833E0,5.430545E0,1.0356206E0,1.9323773E0,1.4188089E0,1.4977744E0,4.365701E0,1.0648438E0],"tree_param":{"num_deleted":"0","num_feature":"9","num_nodes":"21","size_leaf_vector":"1"}},{"base_weights":[2.1974955E-2,-3.2990846E-1,6.872044E-1,-1.00225285E-1,-2.5245243E-1,8.7399894E-1,-8.8115856E-2,-7.8287137E-1,2.9417494E-1,1.0635979E-1,2.9078034E-1,-1.0589803E-2,-2.8622285E-1,8.389543E-1,-2.859302E-1,2.902267E-1,8.4864855E-2,-2.0495076E-1,2.3897063E-2,1.356139E-1,-1.888613E-1],"categories":[],"categories_nodes":[],"categories_segments":[],"categories_sizes":[],"default_left":[0,0,0,0,0,0,0,0,0,0,0,0,0,0,0,0,0,0,0,0,0],"id":6,"left_children":[1,3,5,7,-1,9,-1,11,13,-1,-1,-1,-1,15,17,-1,-1,-1,19,-1,-1],"loss_changes":[6.7203674E0,2.127019E0,2.074665E0,4.032804E0,0E0,8.127785E-2,0E0,6.632037E-1,3.2985451E0,0E0,0E0,0E0,0E0,1.01047754E-1,6.85001E-1,0E0,0E0,0E0,1.4088434E0,0E0,0E0],"parents":[2147483647,0,0,1,1,2,2,3,3,5,5,7,7,8,8,13,13,14,14,18,18],"right_children":[2,4,6,8,-1,10,-1,12,14,-1,-1,-1,-1,16,18,-1,-1,-1,20,-1,-1],"split_conditions":[-3.6816996E-1,1.513927E0,1.2267727E0,-9.006751E-1,-2.5245243E-1,-3.2822987E-1,-8.8115856E-2,-1.0148617E0,-6.2666833E-1,1.0635979E-1,2.9078034E-1,-1.0589803E-2,-2.8622285E-1,-7.430454E-1,-5.539311E-1,2.902267E-1,8.4864855E-2,-2.0495076E-1,1.6475171E-1,1.356139E-1,-1.888613E-1],"split_indices":[7,2,0,0,0,6,0,0,7,0,0,0,0,7,6,0,0,0,3,0,0],"split_type":[0,0,0,0,0,0,0,0,0,0,0,0,0,0,0,0,0,0,0,0,0],"sum_hessian":[2.6740788E1,1.7819143E1,8.921643E0,1.3123322E1,4.6958227E0,7.5860567E0,1.3355865E0,4.444906E0,8.678415E0,1.9073517E0,5.678705E0,1.0530229E0,3.3918834E0,4.2453637E0,4.4330516E0,2.847718E0,1.3976457E0,1.4144901E0,3.0185614E0,2.0098498E0,1.0087116E0],"tree_param":{"num_deleted":"0","num_feature":"9","num_nodes":"21","size_leaf_vector":"1"}},{"base_weights":[1.3911671E-2,-2.8592145E-1,6.498463E-1,-5.158519E-1,1.2743539E-1,8.3255064E-1,-6.357354E-2,8.658002E-2,-6.432654E-1,5.78449E-1,-5.35205E-1,2.7362603E-1,6.1835546E-2,-3.7957725E-1,-2.644777E-1,2.2631316E-1,1.9966094E-2,-1.1668078E-2,-2.1953334E-1,1.4651047E-1,-2.5698778E-1],"categories":[],"categories_nodes":[],"categories_segments":[],"categories_sizes":[],"default_left":[0,0,0,0,0,0,0,0,0,0,0,0,0,0,0,0,0,0,0,0,0],"id":7,"left_children":[1,3,5,7,9,11,-1,-1,13,15,17,-1,-1,19,-1,-1,-1,-1,-1,-1,-1],"loss_changes":[4.8048177E0,1.696412E0,1.4466233E0,1.335959E0,2.382001E0,1.5375137E-1,0E0,0E0,2.9368114E-1,3.646537E-1,2.961976E-1,0E0,0E0,3.1107469E0,0E0,0E0,0E0,0E0,0E0,0E0,0E0],"parents":[2147483647,0,0,1,1,2,2,3,3,4,4,5,5,8,8,9,9,10,10,13,13],"right_children":[2,4,6,8,10,12,-1,-1,14,16,18,-1,-1,20,-1,-1,-1,-1,-1,-1,-1],"split_conditions":[-2.975993E-1,-5.208115E-1,1.2267727E0,-4.771507E-1,4.321082E-1,3.6763707E-1,-6.357354E-2,8.658002E-2,-5.9384423E-1,-6.806839E-2,-2.9656267E-1,2.7362603E-1,6.1835546E-2,9.85073E-2,-2.644777E-1,2.2631316E-1,1.9966094E-2,-1.1668078E-2,-2.1953334E-1,1.4651047E-1,-2.5698778E-1],"split_indices":[7,5,0,2,1,1,0,0,3,6,5,0,0,1,0,0,0,0,0,0,0],"split_type":[0,0,0,0,0,0,0,0,0,0,0,0,0,0,0,0,0,0,0,0,0],"sum_hessian":[2.3224623E1,1.6157167E1,7.0674567E0,1.0222774E1,5.934394E0,5.859134E0,1.2083224E0,1.2247827E0,8.997991E0,3.6066504E0,2.3277438E0,4.794402E0,1.064732E0,5.5025587E0,3.4954317E0,2.331624E0,1.2750263E0,1.000221E0,1.3275226E0,1.9432564E0,3.5593023E0],"tree_param":{"num_deleted":"0","num_feature":"9","num_nodes":"21","size_leaf_vector":"1"}},{"base_weights":[9.928551E-3,-2.53759E-1,5.804286E-1,-5.5285553E-3,-6.08057E-1,2.5630128E-1,-9.63753E-3,-6.2836933E-1,4.4795936E-1,-2.5119242E-1,-1.2108066E-2,-1.3946429E-1,1.4982623E-1,2.5668208E-2,-2.5870073E-1,7.553629E-1,-1.00797E-1,2.5408125E-1,6.970674E-2,-1.452465E-1,1.0112837E-1],"categories":[],"categories_nodes":[],"categories_segments":[],"categories_sizes":[],"default_left":[0,0,0,0,0,0,0,0,0,0,0,0,0,0,0,0,0,0,0,0,0],"id":8,"left_children":[1,3,5,7,9,-1,11,13,15,-1,-1,-1,-1,-1,-1,17,19,-1,-1,-1,-1],"loss_changes":[3.348215E0,1.3376441E0,1.1444838E0,3.0989754E0,7.825577E-1,0E0,9.7784686E-1,8.453212E-1,1.1483548E0,0E0,0E0,0E0,0E0,0E0,0E0,3.967762E-3,6.944179E-1,0E0,0E0,0E0,0E0],"parents":[2147483647,0,0,1,1,2,2,3,3,4,4,6,6,7,7,8,8,15,15,16,16],"right_children":[2,4,6,8,10,-1,12,14,16,-1,-1,-1,-1,-1,-1,18,20,-1,-1,-1,-1],"split_conditions":[-2.975993E-1,8.284372E-1,3.6763707E-1,-9.006751E-1,-6.9397426E-1,2.5630128E-1,6.415758E-1,-1.0148617E0,-6.185461E-1,-2.5119242E-1,-1.2108066E-2,-1.3946429E-1,1.4982623E-1,2.5668208E-2,-2.5870073E-1,-4.5967913E-1,-6.11679E-1,2.5408125E-1,6.970674E-2,-1.452465E-1,1.0112837E-1],"split_indices":[7,0,1,0,4,0,1,0,7,0,0,0,0,0,0,3,1,0,0,0,0],"split_type":[0,0,0,0,0,0,0,0,0,0,0,0,0,0,0,0,0,0,0,0,0],"sum_hessian":[2.0277975E1,1.42477865E1,6.030189E0,8.97516E0,5.2726274E0,3.812539E0,2.21765E0,3.6190107E0,5.3561487E0,3.4175918E0,1.8550357E0,1.216518E0,1.0011318E0,1.0498326E0,2.569178E0,3.1917098E0,2.164439E0,2.1890612E0,1.0026487E0,1.0977492E0,1.0666897E0],"tree_param":{"num_deleted":"0","num_feature":"9","num_nodes":"21","size_leaf_vector":"1"}},{"base_weights":[1.0530746E-2,-2.3572844E-1,4.9810746E-1,2.0225178E-1,-3.8299015E-1,6.8708014E-1,-6.1295327E-2,1.5410426E-1,-1.07143216E-1,-4.997597E-1,7.102789E-2,5.2871507E-2,2.4431421E-1,-2.4354064E-1,-2.2073153E-1,-1.9932805E-1,1.5837754E-1],"categories":[],"categories_nodes":[],"categories_segments":[],"categories_sizes":[],"default_left":[0,0,0,0,0,0,0,0,0,0,0,0,0,0,0,0,0],"id":9,"left_children":[1,3,5,7,9,11,-1,-1,-1,13,-1,-1,-1,15,-1,-1,-1],"loss_changes":[2.3758476E0,9.272849E-1,1.0208668E0,8.750521E-1,8.569242E-1,2.112937E-1,0E0,0E0,0E0,3.595767E-1,0E0,0E0,0E0,2.223199E0,0E0,0E0,0E0],"parents":[2147483647,0,0,1,1,2,2,3,3,4,4,5,5,9,9,13,13],"right_children":[2,4,6,8,10,12,-1,-1,-1,14,-1,-1,-1,16,-1,-1,-1],"split_conditions":[-3.6816996E-1,-5.8022916E-1,1.2267727E0,-4.7677872E-1,-2.4050047E-1,-3.2822987E-1,-6.1295327E-2,1.5410426E-1,-1.07143216E-1,9.85073E-2,7.102789E-2,5.2871507E-2,2.4431421E-1,-6.4904654E-1,-2.2073153E-1,-1.9932805E-1,1.5837754E-1],"split_indices":[7,2,0,7,5,6,0,0,0,1,0,0,0,1,0,0,0],"split_type":[0,0,0,0,0,0,0,0,0,0,0,0,0,0,0,0,0],"sum_hessian":[1.7809233E1,1.2176041E1,5.6331925E0,2.969839E0,9.206202E0,4.456194E0,1.1769987E0,1.9602453E0,1.0095937E0,7.909543E0,1.2966585E0,1.3646088E0,3.0915852E0,4.7666636E0,3.1428795E0,3.173859E0,1.5928047E0],"tree_param":{"num_deleted":"0","num_feature":"9","num_nodes":"17","size_leaf_vector":"1"}},{"base_weights":[1.3590067E-2,-1.5274392E-1,5.901887E-1,3.2167085E-2,-4.850565E-1,2.656974E-2,2.1946958E-1,-3.248745E-1,5.469727E-1,9.68198E-3,-2.0786026E-1,-5.8846635E-1,1.4633419E-1,2.2158536E-1,-4.7842013E-3,-4.171948E-2,-2.1987079E-1,1.7488024E-1,-1.0344331E-1],"categories":[],"categories_nodes":[],"categories_segments":[],"categories_sizes":[],"default_left":[0,0,0,0,0,0,0,0,0,0,0,0,0,0,0,0,0,0,0],"id":10,"left_children":[1,3,5,7,9,-1,-1,11,13,-1,-1,15,17,-1,-1,-1,-1,-1,-1],"loss_changes":[1.7156903E0,8.7272656E-1,2.1889889E-1,1.9973422E0,5.65158E-1,0E0,0E0,8.9009684E-1,4.8934686E-1,0E0,0E0,1.8044233E-1,8.706505E-1,0E0,0E0,0E0,0E0,0E0,0E0],"parents":[2147483647,0,0,1,1,2,2,3,3,4,4,7,7,8,8,11,11,12,12],"right_children":[2,4,6,8,10,-1,-1,12,14,-1,-1,16,18,-1,-1,-1,-1,-1,-1],"split_conditions":[-3.583717E-2,4.492524E-1,-2.911211E-1,-5.208115E-1,1.2253901E0,2.656974E-2,2.1946958E-1,-4.2533794E-1,-6.2104546E-2,9.68198E-3,-2.0786026E-1,-5.738544E-1,7.3567206E-1,2.2158536E-1,-4.7842013E-3,-4.171948E-2,-2.1987079E-1,1.7488024E-1,-1.0344331E-1],"split_indices":[7,1,3,5,0,0,0,0,6,0,0,3,2,0,0,0,0,0,0],"split_type":[0,0,0,0,0,0,0,0,0,0,0,0,0,0,0,0,0,0,0],"sum_hessian":[1.5948987E1,1.29487095E1,3.0002775E0,8.899757E0,4.048952E0,1.0172813E0,1.9829962E0,5.47295E0,3.4268074E0,1.4024235E0,2.6465285E0,3.3500848E0,2.1228657E0,2.3236172E0,1.1031901E0,1.2922302E0,2.0578544E0,1.0249004E0,1.0979651E0],"tree_param":{"num_deleted":"0","num_feature":"9","num_nodes":"19","size_leaf_vector":"1"}},{"base_weights":[1.5358887E-2,-1.8406977E-1,4.536799E-1,-5.396489E-1,-1.5201229E-2,2.1806479E-1,-5.8739493E-3,-1.2523052E-2,-2.160073E-1,4.0928352E-1,-4.745874E-1,1.9961816E-1,-1.971018E-2,-2.0701748E-1,-1.8041573E-2],"categories":[],"categories_nodes":[],"categories_segments":[],"categories_sizes":[],"default_left":[0,0,0,0,0,0,0,0,0,0,0,0,0,0,0],"id":11,"left_children":[1,3,5,7,9,-1,-1,-1,-1,11,13,-1,-1,-1,-1],"loss_changes":[1.4276873E0,6.69118E-1,6.7327595E-1,2.935381E-1,1.8862603E0,0E0,0E0,0E0,0E0,6.5764105E-1,3.7198555E-1,0E0,0E0,0E0,0E0],"parents":[2147483647,0,0,1,1,2,2,3,3,4,4,9,9,10,10],"right_children":[2,4,6,8,10,-1,-1,-1,-1,12,14,-1,-1,-1,-1],"split_conditions":[-2.975993E-1,-9.006751E-1,3.6763707E-1,-9.80237E-1,8.284372E-1,2.1806479E-1,-5.8739493E-3,-1.2523052E-2,-2.160073E-1,-6.185461E-1,-6.9397426E-1,1.9961816E-1,-1.971018E-2,-2.0701748E-1,-1.8041573E-2],"split_indices":[7,0,1,0,0,0,0,0,0,7,4,0,0,0,0],"split_type":[0,0,0,0,0,0,0,0,0,0,0,0,0,0,0],"sum_hessian":[1.4377196E1,1.0280019E1,4.097178E0,2.6031034E0,7.676915E0,2.2578585E0,1.8393195E0,1.0197178E0,1.5833856E0,4.0467124E0,3.6302028E0,2.3686602E0,1.678052E0,1.9509217E0,1.6792812E0],"tree_param":{"num_deleted":"0","num_feature":"9","num_nodes":"15","size_leaf_vector":"1"}},{"base_weights":[8.101431E-3,-1.0634706E-1,1.8830808E-1,1.1889063E-1,-3.5858238E-1,-3.1030357E-1,5.6017447E-1,-2.4034923E-2,-2.4528195E-1,5.1640708E-2,-1.8293661E-1,1.8347446E-2,2.1600626E-1,1.1999091E-1,-1.4344783E-1],"categories":[],"categories_nodes":[],"categories_segments":[],"categories_sizes":[],"default_left":[0,0,0,0,0,0,0,0,0,0,0,0,0,0,0],"id":12,"left_children":[1,3,-1,5,7,9,11,13,-1,-1,-1,-1,-1,-1,-1],"loss_changes":[1.0686055E0,7.687314E-1,0E0,1.5947887E0,9.444237E-1,7.4747247E-1,2.7946925E-1,1.0888495E0,0E0,0E0,0E0,0E0,0E0,0E0,0E0],"parents":[2147483647,0,0,1,1,3,3,4,4,5,5,6,6,7,7],"right_children":[2,4,-1,6,8,10,12,14,-1,-1,-1,-1,-1,-1,-1],"split_conditions":[5.157151E-1,5.0969434E-1,1.8830808E-1,-5.208115E-1,-3.0607322E-1,-5.9384423E-1,-5.9011E-1,1.513927E0,-2.4528195E-1,5.1640708E-2,-1.8293661E-1,1.8347446E-2,2.1600626E-1,1.1999091E-1,-1.4344783E-1],"split_indices":[7,0,0,5,8,3,8,2,0,0,0,0,0,0,0],"split_type":[0,0,0,0,0,0,0,0,0,0,0,0,0,0,0],"sum_hessian":[1.3128229E1,1.1780537E1,1.3476925E0,6.5025916E0,5.2779446E0,3.4469209E0,3.0556707E0,3.6616266E0,1.616318E0,1.483073E0,1.9638479E0,1.0767682E0,1.9789026E0,1.9552809E0,1.7063457E0],"tree_param":{"num_deleted":"0","num_feature":"9","num_nodes":"15","size_leaf_vector":"1"}},{"base_weights":[8.241485E-3,-1.5650512E-1,3.8287443E-1,-4.8792875E-1,6.5799425E-3,1.8996373E-1,-9.7045547E-4,-1.7873377E-1,-3.770293E-2,3.675725E-1,-3.9494342E-1,1.912875E-1,5.741843E-4,-8.842026E-3,-1.8801586E-1],"categories":[],"categories_nodes":[],"categories_segments":[],"categories_sizes":[],"default_left":[0,0,0,0,0,0,0,0,0,0,0,0,0,0,0],"id":13,"left_children":[1,3,5,7,9,-1,-1,-1,-1,11,13,-1,-1,-1,-1],"loss_changes":[8.5682446E-1,5.2629876E-1,4.112845E-1,5.0339878E-2,1.2283359E0,0E0,0E0,0E0,0E0,4.3849754E-1,3.220402E-1,0E0,0E0,0E0,0E0],"parents":[2147483647,0,0,1,1,2,2,3,3,4,4,9,9,10,10],"right_children":[2,4,6,8,10,-1,-1,-1,-1,12,14,-1,-1,-1,-1],"split_conditions":[-2.975993E-1,-9.006751E-1,3.6763707E-1,-7.127234E-1,8.284372E-1,1.8996373E-1,-9.7045547E-4,-1.7873377E-1,-3.770293E-2,-4.4225082E-1,4.492524E-1,1.912875E-1,5.741843E-4,-8.842026E-3,-1.8801586E-1],"split_indices":[7,0,1,8,0,0,0,0,0,3,1,0,0,0,0],"split_type":[0,0,0,0,0,0,0,0,0,0,0,0,0,0,0],"sum_hessian":[1.1911679E1,8.677814E0,3.2338655E0,2.2049727E0,6.4728413E0,1.5736141E0,1.6602513E0,1.2023535E0,1.0026193E0,3.4529743E0,3.019867E0,1.5583229E0,1.8946514E0,1.6093576E0,1.4105093E0],"tree_param":{"num_deleted":"0","num_feature":"9","num_nodes":"15","size_leaf_vector":"1"}},{"base_weights":[4.1498723E-3,-9.594885E-2,1.6448243E-1,2.48135E-1,-2.4574825E-1,1.4937197E-1,-6.6986844E-2,-3.7824172E-1,6.0360108E-2,-2.1052308E-1,-4.9339235E-2,2.7321666E-1,-1.6044673E-1,1.7449325E-1,-6.171411E-2],"categories":[],"categories_nodes":[],"categories_segments":[],"categories_sizes":[],"default_left":[0,0,0,0,0,0,0,0,0,0,0,0,0,0,0],"id":14,"left_children":[1,3,-1,5,7,-1,-1,9,-1,-1,11,13,-1,-1,-1],"loss_changes":[7.097837E-1,6.301266E-1,0E0,5.6412584E-1,5.6141156E-1,0E0,0E0,6.749235E-1,0E0,0E0,8.323778E-1,6.0635364E-1,0E0,0E0,0E0],"parents":[2147483647,0,0,1,1,3,3,4,4,7,7,10,10,11,11],"right_children":[2,4,-1,6,8,-1,-1,10,-1,-1,12,14,-1,-1,-1],"split_conditions":[5.157151E-1,-5.8022916E-1,1.6448243E-1,-3.0607322E-1,-2.4050047E-1,1.4937197E-1,-6.6986844E-2,-1.1808898E-1,6.0360108E-2,-2.1052308E-1,1.513927E0,-5.1370066E-1,-1.6044673E-1,1.7449325E-1,-6.171411E-2],"split_indices":[7,2,0,8,5,0,0,2,0,0,2,3,0,0,0],"split_type":[0,0,0,0,0,0,0,0,0,0,0,0,0,0,0],"sum_hessian":[1.1065781E1,1.0042076E1,1.0237043E0,2.8467486E0,7.1953278E0,1.8241155E0,1.022633E0,5.66864E0,1.5266879E0,2.286295E0,3.3823454E0,2.294862E0,1.0874833E0,1.2654542E0,1.0294079E0],"tree_param":{"num_deleted":"0","num_feature":"9","num_nodes":"15","size_leaf_vector":"1"}},{"base_weights":[6.926043E-3,-1.4584163E-1,3.091805E-1,-1.3901567E-1,1.1109884E-2,-8.657848E-3,1.637632E-1,3.1816953E-1,-3.2078585E-1,1.521188E-1,-1.7779863E-2,-1.6338903E-1,1.3134026E-3],"categories":[],"categories_nodes":[],"categories_segments":[],"categories_sizes":[],"default_left":[0,0,0,0,0,0,0,0,0,0,0,0,0],"id":15,"left_children":[1,3,5,-1,7,-1,-1,9,11,-1,-1,-1,-1],"loss_changes":[5.6263906E-1,4.100829E-1,3.424956E-1,0E0,7.5572014E-1,0E0,0E0,3.0337328E-1,2.6297787E-1,0E0,0E0,0E0,0E0],"parents":[2147483647,0,0,1,1,2,2,4,4,7,7,8,8],"right_children":[2,4,6,-1,8,-1,-1,10,12,-1,-1,-1,-1],"split_conditions":[-3.6816996E-1,-9.006751E-1,-2.571741E-1,-1.3901567E-1,8.284372E-1,-8.657848E-3,1.637632E-1,-6.185461E-1,-6.9397426E-1,1.521188E-1,-1.7779863E-2,-1.6338903E-1,1.3134026E-3],"split_indices":[7,0,4,0,0,0,0,7,4,0,0,0,0],"split_type":[0,0,0,0,0,0,0,0,0,0,0,0,0],"sum_hessian":[1.02084675E1,7.124857E0,3.0836103E0,1.7109185E0,5.4139385E0,1.6315609E0,1.4520495E0,2.8336709E0,2.5802674E0,1.6596394E0,1.1740315E0,1.1284779E0,1.4517895E0],"tree_param":{"num_deleted":"0","num_feature":"9","num_nodes":"13","size_leaf_vector":"1"}},{"base_weights":[4.337519E-3,-1.1411965E-1,1.07896656E-1,7.958595E-2,-2.4397889E-1,-4.202042E-1,1.15213096E-1,9.115394E-3,-1.695888E-1,1.443669E-1,-8.7362126E-2],"categories":[],"categories_nodes":[],"categories_segments":[],"categories_sizes":[],"default_left":[0,0,0,0,0,0,0,0,0,0,0],"id":16,"left_children":[1,3,-1,-1,5,7,9,-1,-1,-1,-1],"loss_changes":[4.8744985E-1,4.9402457E-1,0E0,0E0,4.9228948E-1,3.388008E-1,6.002095E-1,0E0,0E0,0E0,0E0],"parents":[2147483647,0,0,1,1,4,4,5,5,6,6],"right_children":[2,4,-1,-1,6,8,10,-1,-1,-1,-1],"split_conditions":[1.2144114E-1,-6.3485503E-1,1.07896656E-1,7.958595E-2,2.7512798E-1,-7.4291706E-1,1.8697027E0,9.115394E-3,-1.695888E-1,1.443669E-1,-8.7362126E-2],"split_indices":[4,2,0,0,2,8,2,0,0,0,0],"split_type":[0,0,0,0,0,0,0,0,0,0,0],"sum_hessian":[9.606E0,7.7133274E0,1.8926725E0,1.70092E0,6.0124073E0,3.9195528E0,2.0928545E0,1.1472628E0,2.77229E0,1.004331E0,1.0885235E0],"tree_param":{"num_deleted":"0","num_feature":"9","num_nodes":"11","size_leaf_vector":"1"}},{"base_weights":[1.1274347E-2,-1.2657265E-1,2.8365478E-1,3.1240853E-2,-1.29627E-1,1.4600204E-1,-5.5941315E-3,-2.3654889E-1,3.5463262E-1,-1.4276314E-1,4.0637776E-2,1.4479208E-1,1.4026855E-2],"categories":[],"categories_nodes":[],"categories_segments":[],"categories_sizes":[],"default_left":[0,0,0,0,0,0,0,0,0,0,0,0,0],"id":17,"left_children":[1,3,5,7,-1,-1,-1,9,11,-1,-1,-1,-1],"loss_changes":[4.178743E-1,3.7251562E-1,2.3781195E-1,5.898585E-1,0E0,0E0,0E0,4.024185E-1,9.750369E-2,0E0,0E0,0E0,0E0],"parents":[2147483647,0,0,1,1,2,2,3,3,7,7,8,8],"right_children":[2,4,6,8,-1,-1,-1,10,12,-1,-1,-1,-1],"split_conditions":[-3.6816996E-1,4.492524E-1,3.6763707E-1,-5.208115E-1,-1.29627E-1,1.4600204E-1,-5.5941315E-3,-6.4904654E-1,-2.432353E-1,-1.4276314E-1,4.0637776E-2,1.4479208E-1,1.4026855E-2],"split_indices":[7,1,1,5,0,0,0,1,3,0,0,0,0],"split_type":[0,0,0,0,0,0,0,0,0,0,0,0,0],"sum_hessian":[9.1732E0,6.4461994E0,2.7270005E0,4.8425484E0,1.6036508E0,1.2665341E0,1.4604663E0,2.795898E0,2.0466506E0,1.5314447E0,1.2644533E0,1.0446624E0,1.0019882E0],"tree_param":{"num_deleted":"0","num_feature":"9","num_nodes":"13","size_leaf_vector":"1"}},{"base_weights":[1.5327715E-2,-1.0022475E-1,2.6793578E-1,-2.784209E-1,1.00097045E-1,1.2361466E-2,1.17337175E-1,1.1852611E-3,-1.3581598E-1,3.814365E-1,-1.1314012E-1,2.5359882E-2,1.480371E-1],"categories":[],"categories_nodes":[],"categories_segments":[],"categories_sizes":[],"default_left":[0,0,0,0,0,0,0,0,0,0,0,0,0],"id":18,"left_children":[1,3,5,7,9,-1,-1,-1,-1,11,-1,-1,-1],"loss_changes":[3.1008458E-1,2.9150495E-1,7.654935E-2,2.0717317E-1,7.0943034E-1,0E0,0E0,0E0,0E0,6.296316E-2,0E0,0E0,0E0],"parents":[2147483647,0,0,1,1,2,2,3,3,4,4,9,9],"right_children":[2,4,6,8,10,-1,-1,-1,-1,12,-1,-1,-1],"split_conditions":[-2.975993E-1,-5.208115E-1,-4.6400672E-1,-7.834009E-1,-6.2104546E-2,1.2361466E-2,1.17337175E-1,1.1852611E-3,-1.3581598E-1,-2.777131E-1,-1.1314012E-1,2.5359882E-2,1.480371E-1],"split_indices":[7,5,2,8,6,0,0,0,0,3,0,0,0],"split_type":[0,0,0,0,0,0,0,0,0,0,0,0,0],"sum_hessian":[8.703178E0,6.3854656E0,2.317713E0,3.17303E0,3.2124355E0,1.2857481E0,1.0319648E0,1.5840824E0,1.5889475E0,2.1472862E0,1.0651494E0,1.0688869E0,1.0783993E0],"tree_param":{"num_deleted":"0","num_feature":"9","num_nodes":"13","size_leaf_vector":"1"}},{"base_weights":[1.6896136E-2,2.1275832E-1,-1.4564362E-1,-5.836248E-2,1.7543136E-1,1.1670765E-1,-3.5181338E-1,-1.07947566E-1,1.722355E-1,-1.9076894E-1,3.5531014E-2],"categories":[],"categories_nodes":[],"categories_segments":[],"categories_sizes":[],"default_left":[0,0,0,0,0,0,0,0,0,0,0],"id":19,"left_children":[1,3,5,-1,-1,7,9,-1,-1,-1,-1],"loss_changes":[3.3052114E-1,8.218793E-1,3.512833E-1,0E0,0E0,9.203833E-1,5.3762823E-1,0E0,0E0,0E0,0E0],"parents":[2147483647,0,0,1,1,2,2,5,5,6,6],"right_children":[2,4,6,-1,-1,8,10,-1,-1,-1,-1],"split_conditions":[1.3656287E-1,-5.208115E-1,-2.841044E-1,-5.836248E-2,1.7543136E-1,-7.3184526E-1,1.1406045E0,-1.07947566E-1,1.722355E-1,-1.9076894E-1,3.5531014E-2],"split_indices":[1,5,5,0,0,4,0,0,0,0,0],"split_type":[0,0,0,0,0,0,0,0,0,0,0],"sum_hessian":[8.408845E0,3.6733983E0,4.7354465E0,1.9812617E0,1.6921365E0,2.2747495E0,2.4606972E0,1.2185749E0,1.0561746E0,1.3144015E0,1.1462955E0],"tree_param":{"num_deleted":"0","num_feature":"9","num_nodes":"11","size_leaf_vector":"1"}},{"base_weights":[1.7635748E-2,1.8776703E-1,-1.232192E-1,-1.2827519E-1,1.7061621E-1,1.1030296E-1,-2.9676414E-1,5.9529357E-2,-1.2088342E-1,-7.713557E-2,1.2972349E-1,-1.6955817E-1,2.5989793E-2],"categories":[],"categories_nodes":[],"categories_segments":[],"categories_sizes":[],"default_left":[0,0,0,0,0,0,0,0,0,0,0,0,0],"id":20,"left_children":[1,3,5,7,-1,9,11,-1,-1,-1,-1,-1,-1],"loss_changes":[2.364861E-1,6.0615057E-1,2.545901E-1,3.703887E-1,0E0,4.7367463E-1,4.0005213E-1,0E0,0E0,0E0,0E0,0E0,0E0],"parents":[2147483647,0,0,1,1,2,2,3,3,5,5,6,6],"right_children":[2,4,6,8,-1,10,12,-1,-1,-1,-1,-1,-1],"split_conditions":[1.3656287E-1,-4.919443E-1,-2.841044E-1,-5.738544E-1,1.7061621E-1,-6.0142106E-1,1.1129072E0,5.9529357E-2,-1.2088342E-1,-7.713557E-2,1.2972349E-1,-1.6955817E-1,2.5989793E-2],"split_indices":[1,5,5,3,0,3,0,0,0,0,0,0,0],"split_type":[0,0,0,0,0,0,0,0,0,0,0,0,0],"sum_hessian":[7.902983E0,3.4286475E0,4.4743357E0,2.2365046E0,1.1921432E0,2.062904E0,2.411432E0,1.1482636E0,1.088241E0,1.0579221E0,1.0049816E0,1.1394721E0,1.2719598E0],"tree_param":{"num_deleted":"0","num_feature":"9","num_nodes":"13","size_leaf_vector":"1"}},{"base_weights":[1.6277418E-2,-9.236527E-2,2.4070781E-1,6.456052E-2,-2.367795E-1,2.3004205E-3,1.0590668E-1,4.6485674E-2,-1.4561886E-1,-4.775708E-2,6.5714695E-2],"categories":[],"categories_nodes":[],"categories_segments":[],"categories_sizes":[],"default_left":[0,0,0,0,0,0,0,0,0,0,0],"id":21,"left_children":[1,3,5,-1,7,-1,-1,9,-1,-1,-1],"loss_changes":[2.2885366E-1,3.3667487E-1,7.689789E-2,0E0,3.6436638E-1,0E0,0E0,1.4777967E-1,0E0,0E0,0E0],"parents":[2147483647,0,0,1,1,2,2,4,4,7,7],"right_children":[2,4,6,-1,8,-1,-1,10,-1,-1,-1],"split_conditions":[-1.4554827E-1,-4.771507E-1,-3.8458493E-1,6.456052E-2,9.85073E-2,2.3004205E-3,1.0590668E-1,-5.5195713E-1,-1.4561886E-1,-4.775708E-2,6.5714695E-2],"split_indices":[3,2,7,0,1,0,0,5,0,0,0],"split_type":[0,0,0,0,0,0,0,0,0,0,0],"sum_hessian":[7.4740586E0,5.432655E0,2.041404E0,1.579192E0,3.8534627E0,1.0113144E0,1.0300896E0,2.1812477E0,1.672215E0,1.0305021E0,1.1507455E0],"tree_param":{"num_deleted":"0","num_feature":"9","num_nodes":"11","size_leaf_vector":"1"}},{"base_weights":[1.6605908E-2,-7.672351E-2,1.1296946E-1,4.037665E-1,-1.0777906E-1,2.405839E-2,1.6006355E-1,1.2756494E-1,-1.0796002E-1,-6.5840683E-3,6.4959526E-2],"categories":[],"categories_nodes":[],"categories_segments":[],"categories_sizes":[],"default_left":[0,0,0,0,0,0,0,0,0,0,0],"id":22,"left_children":[1,-1,3,5,7,-1,-1,9,-1,-1,-1],"loss_changes":[2.4484147E-1,0E0,4.781986E-1,8.876741E-2,3.2110605E-1,0E0,0E0,4.648323E-2,0E0,0E0,0E0],"parents":[2147483647,0,0,2,2,3,3,4,4,7,7],"right_children":[2,-1,4,6,8,-1,-1,10,-1,-1,-1],"split_conditions":[-9.006751E-1,-7.672351E-2,5.169175E-1,-6.11679E-1,-3.0607322E-1,2.405839E-2,1.6006355E-1,-5.324655E-1,-1.0796002E-1,-6.5840683E-3,6.4959526E-2],"split_indices":[0,0,0,1,8,0,0,3,0,0,0],"split_type":[0,0,0,0,0,0,0,0,0,0,0],"sum_hessian":[7.228331E0,1.4568622E0,5.7714686E0,2.1328018E0,3.638667E0,1.0737065E0,1.0590953E0,2.1372962E0,1.5013709E0,1.0783706E0,1.0589257E0],"tree_param":{"num_deleted":"0","num_feature":"9","num_nodes":"11","size_leaf_vector":"1"}},{"base_weights":[2.0376835E-2,-9.789515E-2,7.5613305E-2,4.3306507E-2,-1.12133875E-1,-9.088045E-2,2.2206467E-1,1.075069E-1,-1.7528165E-2],"categories":[],"categories_nodes":[],"categories_segments":[],"categories_sizes":[],"default_left":[0,0,0,0,0,0,0,0,0],"id":23,"left_children":[1,3,-1,5,-1,-1,7,-1,-1],"loss_changes":[2.4344829E-1,2.5015995E-1,0E0,3.6863038E-1,0E0,0E0,1.6575429E-1,0E0,0E0],"parents":[2147483647,0,0,1,1,3,3,6,6],"right_children":[2,4,-1,6,-1,-1,8,-1,-1],"split_conditions":[-2.975993E-1,4.492524E-1,7.5613305E-2,-9.006751E-1,-1.12133875E-1,-9.088045E-2,-6.185461E-1,1.075069E-1,-1.7528165E-2],"split_indices":[7,1,0,0,0,0,7,0,0],"split_type":[0,0,0,0,0,0,0,0,0],"sum_hessian":[6.98453E0,5.0061827E0,1.9783473E0,3.868999E0,1.1371837E0,1.0808363E0,2.7881627E0,1.6895884E0,1.0985744E0],"tree_param":{"num_deleted":"0","num_feature":"9","num_nodes":"9","size_leaf_vector":"1"}},{"base_weights":[9.6909115E-3,-8.5034855E-2,8.892508E-2,3.184392E-2,-9.023936E-2,7.1236566E-2,-1.0101874E-1,-1.1361148E-1,3.8873535E-2],"categories":[],"categories_nodes":[],"categories_segments":[],"categories_sizes":[],"default_left":[0,0,0,0,0,0,0,0,0],"id":24,"left_children":[1,3,-1,5,-1,-1,7,-1,-1],"loss_changes":[2.3638913E-1,1.7656375E-1,0E0,1.6602203E-1,0E0,0E0,2.9623795E-1,0E0,0E0],"parents":[2147483647,0,0,1,1,3,3,6,6],"right_children":[2,4,-1,6,-1,-1,8,-1,-1],"split_conditions":[1.2144114E-1,-4.1272536E-1,8.892508E-2,-4.771507E-1,-9.023936E-2,7.1236566E-2,-8.964228E-2,-1.1361148E-1,3.8873535E-2],"split_indices":[4,4,0,2,0,0,2,0,0],"split_type":[0,0,0,0,0,0,0,0,0],"sum_hessian":[6.775431E0,5.621637E0,1.153794E0,4.199293E0,1.422344E0,1.3393549E0,2.8599384E0,1.0061041E0,1.8538342E0],"tree_param":{"num_deleted":"0","num_feature":"9","num_nodes":"9","size_leaf_vector":"1"}},{"base_weights":[6.151689E-3,-1.4010331E-1,1.6136853E-1,-3.5836115E-3,-9.1224745E-2,1.2321985E-1,-2.8648028E-2,-5.299709E-2,6.275162E-2],"categories":[],"categories_nodes":[],"categories_segments":[],"categories_sizes":[],"default_left":[0,0,0,0,0,0,0,0,0],"id":25,"left_children":[1,3,5,7,-1,-1,-1,-1,-1],"loss_changes":[1.9552499E-1,9.868676E-2,3.056823E-1,1.6377053E-1,0E0,0E0,0E0,0E0,0E0],"parents":[2147483647,0,0,1,1,2,2,3,3],"right_children":[2,4,6,8,-1,-1,-1,-1,-1],"split_conditions":[-4.9775165E-1,-6.751903E-1,3.6763707E-1,-5.56285E-1,-9.1224745E-2,1.2321985E-1,-2.8648028E-2,-5.299709E-2,6.275162E-2],"split_indices":[8,8,1,5,0,0,0,0,0],"split_type":[0,0,0,0,0,0,0,0,0],"sum_hessian":[6.6170607E0,3.4570153E0,3.1600454E0,2.4440732E0,1.0129421E0,1.2994676E0,1.860578E0,1.441284E0,1.0027893E0],"tree_param":{"num_deleted":"0","num_feature":"9","num_nodes":"9","size_leaf_vector":"1"}},{"base_weights":[6.7453813E-3,-9.384783E-2,6.180839E-2,2.6554242E-2,-9.5154725E-2,-1.6878638E-1,8.9216344E-2,-1.0918126E-1,2.9523998E-2],"categories":[],"categories_nodes":[],"categories_segments":[],"categories_sizes":[],"default_left":[0,0,0,0,0,0,0,0,0],"id":26,"left_children":[1,3,-1,5,-1,7,-1,-1,-1],"loss_changes":[1.6890253E-1,1.6022357E-1,0E0,2.930612E-1,0E0,2.081509E-1,0E0,0E0,0E0],"parents":[2147483647,0,0,1,1,3,3,5,5],"right_children":[2,4,-1,6,-1,8,-1,-1,-1],"split_conditions":[-2.975993E-1,4.492524E-1,6.180839E-2,-4.919443E-1,-9.5154725E-2,-6.4904654E-1,8.9216344E-2,-1.0918126E-1,2.9523998E-2],"split_indices":[7,1,0,5,0,1,0,0,0],"split_type":[0,0,0,0,0,0,0,0,0],"sum_hessian":[6.4610257E0,4.645272E0,1.8157538E0,3.590627E0,1.0546448E0,2.3049529E0,1.2856741E0,1.1228374E0,1.1821154E0],"tree_param":{"num_deleted":"0","num_feature":"9","num_nodes":"9","size_leaf_vector":"1"}},{"base_weights":[1.1876669E-3,-7.292536E-2,6.968117E-2,9.5340826E-2,-2.2880723E-1,-5.1068805E-2,7.832839E-2,-1.0297046E-1,-7.115278E-4],"categories":[],"categories_nodes":[],"categories_segments":[],"categories_sizes":[],"default_left":[0,0,0,0,0,0,0,0,0],"id":27,"left_children":[1,3,-1,5,7,-1,-1,-1,-1],"loss_changes":[1.4115033E-1,1.8581662E-1,0E0,2.0787637E-1,9.090483E-2,0E0,0E0,0E0,0E0],"parents":[2147483647,0,0,1,1,3,3,4,4],"right_children":[2,4,-1,6,8,-1,-1,-1,-1],"split_conditions":[1.2144114E-1,-4.4225082E-1,6.968117E-2,-7.3184526E-1,-2.3390697E-1,-5.1068805E-2,7.832839E-2,-1.0297046E-1,-7.115278E-4],"split_indices":[4,3,0,4,6,0,0,0,0],"split_type":[0,0,0,0,0,0,0,0,0],"sum_hessian":[6.2527204E0,5.252541E0,1.0001789E0,2.7127018E0,2.5398395E0,1.0320897E0,1.680612E0,1.3445587E0,1.1952809E0],"tree_param":{"num_deleted":"0","num_feature":"9","num_nodes":"9","size_leaf_vector":"1"}},{"base_weights":[-1.2336795E-4,-1.134687E-1,1.6154365E-1,6.8846345E-2,-1.0182864E-1,-2.1646261E-2,1.03389405E-1,8.434651E-2,-5.4621026E-2],"categories":[],"categories_nodes":[],"categories_segments":[],"categories_sizes":[],"default_left":[0,0,0,0,0,0,0,0,0],"id":28,"left_children":[1,3,5,7,-1,-1,-1,-1,-1],"loss_changes":[1.4894114E-1,2.2018197E-1,1.6821593E-1,2.363349E-1,0E0,0E0,0E0,0E0,0E0],"parents":[2147483647,0,0,1,1,2,2,3,3],"right_children":[2,4,6,8,-1,-1,-1,-1,-1],"split_conditions":[-1.1808898E-1,-4.771507E-1,-5.56953E-1,-7.542842E-2,-1.0182864E-1,-2.1646261E-2,1.03389405E-1,8.434651E-2,-5.4621026E-2],"split_indices":[2,2,5,5,0,0,0,0,0],"split_type":[0,0,0,0,0,0,0,0,0],"sum_hessian":[6.127786E0,3.7775004E0,2.3502858E0,2.4754827E0,1.3020177E0,1.29861E0,1.0516757E0,1.2756232E0,1.1998595E0],"tree_param":{"num_deleted":"0","num_feature":"9","num_nodes":"9","size_leaf_vector":"1"}},{"base_weights":[1.5676793E-3,-9.5699094E-2,5.7662573E-2,-7.141768E-2,3.9716065E-2,8.340507E-2,-5.2209068E-2],"categories":[],"categories_nodes":[],"categories_segments":[],"categories_sizes":[],"default_left":[0,0,0,0,0,0,0],"id":29,"left_children":[1,3,-1,-1,5,-1,-1],"loss_changes":[1.4782271E-1,1.11422434E-1,0E0,0E0,2.30115E-1,0E0,0E0],"parents":[2147483647,0,0,1,1,4,4],"right_children":[2,4,-1,-1,6,-1,-1],"split_conditions":[-2.975993E-1,-5.5195713E-1,5.7662573E-2,-7.141768E-2,2.4265376E-1,8.340507E-2,-5.2209068E-2],"split_indices":[7,5,0,0,1,0,0],"split_type":[0,0,0,0,0,0,0],"sum_hessian":[5.979903E0,4.2894163E0,1.6904868E0,1.721567E0,2.5678494E0,1.072007E0,1.4958425E0],"tree_param":{"num_deleted":"0","num_feature":"9","num_nodes":"7","size_leaf_vector":"1"}},{"base_weights":[3.7088452E-3,-1.01446524E-1,1.541764E-1,6.618636E-2,-9.296163E-2,-7.4515236E-3,7.400545E-2,8.194734E-2,-4.3824162E-2],"categories":[],"categories_nodes":[],"categories_segments":[],"categories_sizes":[],"default_left":[0,0,0,0,0,0,0,0,0],"id":30,"left_children":[1,3,5,7,-1,-1,-1,-1,-1],"loss_changes":[1.24345586E-1,1.8287787E-1,5.9502736E-2,1.8926063E-1,0E0,0E0,0E0,0E0,0E0],"parents":[2147483647,0,0,1,1,2,2,3,3],"right_children":[2,4,6,8,-1,-1,-1,-1,-1],"split_conditions":[-1.1808898E-1,-4.771507E-1,-6.347793E-1,-1.8132369E-1,-9.296163E-2,-7.4515236E-3,7.400545E-2,8.194734E-2,-4.3824162E-2],"split_indices":[2,2,6,5,0,0,0,0,0],"split_type":[0,0,0,0,0,0,0,0,0],"sum_hessian":[5.870288E0,3.647204E0,2.2230842E0,2.399653E0,1.247551E0,1.0066321E0,1.216452E0,1.0697399E0,1.329913E0],"tree_param":{"num_deleted":"0","num_feature":"9","num_nodes":"9","size_leaf_vector":"1"}},{"base_weights":[4.4933516E-3,-1.1588316E-1,1.3325076E-1,-7.4971154E-2,4.292724E-3,1.1109393E-1,-3.1698976E-2],"categories":[],"categories_nodes":[],"categories_segments":[],"categories_sizes":[],"default_left":[0,0,0,0,0,0,0],"id":31,"left_children":[1,3,5,-1,-1,-1,-1],"loss_changes":[1.2032356E-1,7.3929876E-2,2.506557E-1,0E0,0E0,0E0,0E0],"parents":[2147483647,0,0,1,1,2,2],"right_children":[2,4,6,-1,-1,-1,-1],"split_conditions":[-4.9775165E-1,-8.551938E-1,-3.0607322E-1,-7.4971154E-2,4.292724E-3,1.1109393E-1,-3.1698976E-2],"split_indices":[8,0,8,0,0,0,0],"split_type":[0,0,0,0,0,0,0],"sum_hessian":[5.76686E0,3.032105E0,2.734755E0,1.0409971E0,1.9911077E0,1.0966349E0,1.6381203E0],"tree_param":{"num_deleted":"0","num_feature":"9","num_nodes":"7","size_leaf_vector":"1"}},{"base_weights":[4.6973852E-3,-8.510311E-2,5.301738E-2,3.6270365E-2,-6.851894E-2,-4.528782E-2,7.5342916E-2],"categories":[],"categories_nodes":[],"categories_segments":[],"categories_sizes":[],"default_left":[0,0,0,0,0,0,0],"id":32,"left_children":[1,3,-1,5,-1,-1,-1],"loss_changes":[1.1839726E-1,9.647651E-2,0E0,1.8307936E-1,0E0,0E0,0E0],"parents":[2147483647,0,0,1,1,3,3],"right_children":[2,4,-1,6,-1,-1,-1],"split_conditions":[-2.975993E-1,-4.1272536E-1,5.301738E-2,-5.324655E-1,-6.851894E-2,-4.528782E-2,7.5342916E-2],"split_indices":[7,4,0,3,0,0,0],"split_type":[0,0,0,0,0,0,0],"sum_hessian":[5.690613E0,4.070862E0,1.6197512E0,2.608375E0,1.4624866E0,1.5527928E0,1.0555823E0],"tree_param":{"num_deleted":"0","num_feature":"9","num_nodes":"7","size_leaf_vector":"1"}},{"base_weights":[5.595426E-3,1.4661545E-1,-1.2675256E-1,-4.3812897E-2,1.1693378E-1,2.03167E-2,-9.221924E-2],"categories":[],"categories_nodes":[],"categories_segments":[],"categories_sizes":[],"default_left":[0,0,0,0,0,0,0],"id":33,"left_children":[1,3,5,-1,-1,-1,-1],"loss_changes":[1.4192575E-1,3.1761009E-1,1.5942574E-1,0E0,0E0,0E0,0E0],"parents":[2147483647,0,0,1,1,2,2],"right_children":[2,4,6,-1,-1,-1,-1],"split_conditions":[5.169175E-1,-5.208115E-1,-3.0607322E-1,-4.3812897E-2,1.1693378E-1,2.03167E-2,-9.221924E-2],"split_indices":[0,5,8,0,0,0,0],"split_type":[0,0,0,0,0,0,0],"sum_hessian":[5.608645E0,2.6631696E0,2.9454753E0,1.38984E0,1.2733295E0,1.7194712E0,1.2260041E0],"tree_param":{"num_deleted":"0","num_feature":"9","num_nodes":"7","size_leaf_vector":"1"}},{"base_weights":[4.6986383E-3,-8.2029164E-2,5.4362584E-2,8.714598E-2,-7.8594804E-2,-2.1211063E-2,6.773085E-2],"categories":[],"categories_nodes":[],"categories_segments":[],"categories_sizes":[],"default_left":[0,0,0,0,0,0,0],"id":34,"left_children":[1,3,-1,5,-1,-1,-1],"loss_changes":[1.13988884E-1,1.7596936E-1,0E0,8.911641E-2,0E0,0E0,0E0],"parents":[2147483647,0,0,1,1,3,3],"right_children":[2,4,-1,6,-1,-1,-1],"split_conditions":[-1.4554827E-1,-4.4225082E-1,5.4362584E-2,-7.455479E-1,-7.8594804E-2,-2.1211063E-2,6.773085E-2],"split_indices":[3,3,0,7,0,0,0],"split_type":[0,0,0,0,0,0,0],"sum_hessian":[5.475203E0,4.03023E0,1.4449732E0,2.3431523E0,1.6870776E0,1.3246939E0,1.0184585E0],"tree_param":{"num_deleted":"0","num_feature":"9","num_nodes":"7","size_leaf_vector":"1"}},{"base_weights":[6.7876712E-3,1.5701857E-1,-1.07230335E-1,-1.7691977E-2,8.528985E-2,2.6011318E-2,-6.998041E-2],"categories":[],"categories_nodes":[],"categories_segments":[],"categories_sizes":[],"default_left":[0,0,0,0,0,0,0],"id":35,"left_children":[1,3,5,-1,-1,-1,-1],"loss_changes":[1.2662639E-1,1.03952475E-1,1.2381913E-1,0E0,0E0,0E0,0E0],"parents":[2147483647,0,0,1,1,2,2],"right_children":[2,4,6,-1,-1,-1,-1],"split_conditions":[1.3656287E-1,-7.1871734E-1,-2.841044E-1,-1.7691977E-2,8.528985E-2,2.6011318E-2,-6.998041E-2],"split_indices":[1,1,5,0,0,0,0],"split_type":[0,0,0,0,0,0,0],"sum_hessian":[5.4095416E0,2.171379E0,3.2381625E0,1.0041076E0,1.1672716E0,1.3984449E0,1.8397175E0],"tree_param":{"num_deleted":"0","num_feature":"9","num_nodes":"7","size_leaf_vector":"1"}},{"base_weights":[8.680903E-3,-1.08389705E-1,1.535846E-1,3.1225549E-2,-7.476827E-2,-4.699117E-2,1.267628E-1],"categories":[],"categories_nodes":[],"categories_segments":[],"categories_sizes":[],"default_left":[0,0,0,0,0,0,0],"id":36,"left_children":[1,3,5,-1,-1,-1,-1],"loss_changes":[1.2432492E-1,1.4854673E-1,3.3737838E-1,0E0,0E0,0E0,0E0],"parents":[2147483647,0,0,1,1,2,2],"right_children":[2,4,6,-1,-1,-1,-1],"split_conditions":[-2.968674E-1,-6.3035375E-1,-5.521051E-1,3.1225549E-2,-7.476827E-2,-4.699117E-2,1.267628E-1],"split_indices":[3,6,2,0,0,0,0],"split_type":[0,0,0,0,0,0,0],"sum_hessian":[5.3474517E0,3.097172E0,2.2502797E0,1.3386207E0,1.7585512E0,1.23891E0,1.0113696E0],"tree_param":{"num_deleted":"0","num_feature":"9","num_nodes":"7","size_leaf_vector":"1"}},{"base_weights":[1.2532181E-2,1.3523841E-1,-1.01938725E-1,-3.4762517E-2,1.0317273E-1,-7.830823E-2,1.4571135E-2],"categories":[],"categories_nodes":[],"categories_segments":[],"categories_sizes":[],"default_left":[0,0,0,0,0,0,0],"id":37,"left_children":[1,3,5,-1,-1,-1,-1],"loss_changes":[1.0147045E-1,2.2024739E-1,1.0366283E-1,0E0,0E0,0E0,0E0],"parents":[2147483647,0,0,1,1,2,2],"right_children":[2,4,6,-1,-1,-1,-1],"split_conditions":[5.169175E-1,-5.208115E-1,1.1776172E0,-3.4762517E-2,1.0317273E-1,-7.830823E-2,1.4571135E-2],"split_indices":[0,5,0,0,0,0,0],"split_type":[0,0,0,0,0,0,0],"sum_hessian":[5.242531E0,2.4426882E0,2.7998428E0,1.3104259E0,1.1322622E0,1.0041535E0,1.7956892E0],"tree_param":{"num_deleted":"0","num_feature":"9","num_nodes":"7","size_leaf_vector":"1"}},{"base_weights":[1.0101817E-2,-7.2503045E-2,5.0247326E-2,6.0329914E-2,-6.7717195E-2,-3.2566726E-2,5.568457E-2],"categories":[],"categories_nodes":[],"categories_segments":[],"categories_sizes":[],"default_left":[0,0,0,0,0,0,0],"id":38,"left_children":[1,3,-1,5,-1,-1,-1],"loss_changes":[9.220337E-2,1.100145E-1,0E0,9.052457E-2,0E0,0E0,0E0],"parents":[2147483647,0,0,1,1,3,3],"right_children":[2,4,-1,6,-1,-1,-1],"split_conditions":[-2.975993E-1,8.284372E-1,5.0247326E-2,-8.551938E-1,-6.7717195E-2,-3.2566726E-2,5.568457E-2],"split_indices":[7,0,0,0,0,0,0],"split_type":[0,0,0,0,0,0,0],"sum_hessian":[5.1579127E0,3.7362843E0,1.4216284E0,2.326023E0,1.4102612E0,1.0475068E0,1.2785163E0],"tree_param":{"num_deleted":"0","num_feature":"9","num_nodes":"7","size_leaf_vector":"1"}},{"base_weights":[8.047449E-3,-7.037538E-2,5.043407E-2,8.201775E-2,-6.9961615E-2,5.6915123E-2,-2.2456044E-2],"categories":[],"categories_nodes":[],"categories_segments":[],"categories_sizes":[],"default_left":[0,0,0,0,0,0,0],"id":39,"left_children":[1,3,-1,5,-1,-1,-1],"loss_changes":[8.821064E-2,1.3795537E-1,0E0,6.849201E-2,0E0,0E0,0E0],"parents":[2147483647,0,0,1,1,3,3],"right_children":[2,4,-1,6,-1,-1,-1],"split_conditions":[-1.4554827E-1,-4.4225082E-1,5.043407E-2,-6.108793E-1,-6.9961615E-2,5.6915123E-2,-2.2456044E-2],"split_indices":[3,3,0,6,0,0,0],"split_type":[0,0,0,0,0,0,0],"sum_hessian":[5.084647E0,3.7887309E0,1.2959164E0,2.2134519E0,1.575279E0,1.1882694E0,1.0251825E0],"tree_param":{"num_deleted":"0","num_feature":"9","num_nodes":"7","size_leaf_vector":"1"}},{"base_weights":[8.11868E-3,4.1995633E-2,-8.9463845E-2,1.7310878E-2,-6.204951E-2],"categories":[],"categories_nodes":[],"categories_segments":[],"categories_sizes":[],"default_left":[0,0,0,0,0],"id":40,"left_children":[1,-1,3,-1,-1],"loss_changes":[9.01884E-2,0E0,8.238615E-2,0E0,0E0],"parents":[2147483647,0,0,2,2],"right_children":[2,-1,4,-1,-1],"split_conditions":[1.3656287E-1,4.1995633E-2,-4.771507E-1,1.7310878E-2,-6.204951E-2],"split_indices":[1,0,2,0,0],"split_type":[0,0,0,0,0],"sum_hessian":[5.0355473E0,1.9567658E0,3.0787816E0,1.5915304E0,1.4872512E0],"tree_param":{"num_deleted":"0","num_feature":"9","num_nodes":"5","size_leaf_vector":"1"}},{"base_weights":[5.16523E-3,-6.670088E-2,4.784218E-2,6.87161E-2,-7.235564E-2,-3.8411774E-2,7.517475E-2],"categories":[],"categories_nodes":[],"categories_segments":[],"categories_sizes":[],"default_left":[0,0,0,0,0,0,0],"id":41,"left_children":[1,3,-1,5,-1,-1,-1],"loss_changes":[7.708076E-2,1.2981966E-1,0E0,1.5649521E-1,0E0,0E0,0E0],"parents":[2147483647,0,0,1,1,3,3],"right_children":[2,4,-1,6,-1,-1,-1],"split_conditions":[-2.2652812E-1,-4.1272536E-1,4.784218E-2,-5.5221695E-1,-7.235564E-2,-3.8411774E-2,7.517475E-2],"split_indices":[7,4,0,5,0,0,0],"split_type":[0,0,0,0,0,0,0],"sum_hessian":[4.9915514E0,3.7928522E0,1.1986992E0,2.4767954E0,1.3160568E0,1.331865E0,1.1449304E0],"tree_param":{"num_deleted":"0","num_feature":"9","num_nodes":"7","size_leaf_vector":"1"}},{"base_weights":[5.7527064E-3,1.1694041E-1,-9.380802E-2,-3.4071006E-2,9.46636E-2,1.9887617E-2,-7.4555434E-2],"categories":[],"categories_nodes":[],"categories_segments":[],"categories_sizes":[],"default_left":[0,0,0,0,0,0,0],"id":42,"left_children":[1,3,5,-1,-1,-1,-1],"loss_changes":[7.65108E-2,1.8426187E-1,1.0758822E-1,0E0,0E0,0E0,0E0],"parents":[2147483647,0,0,1,1,2,2],"right_children":[2,4,6,-1,-1,-1,-1],"split_conditions":[5.169175E-1,-5.208115E-1,-3.0607322E-1,-3.4071006E-2,9.46636E-2,1.9887617E-2,-7.4555434E-2],"split_indices":[0,5,8,0,0,0,0],"split_type":[0,0,0,0,0,0,0],"sum_hessian":[4.920622E0,2.242109E0,2.6785126E0,1.2358654E0,1.0062437E0,1.5971879E0,1.0813247E0],"tree_param":{"num_deleted":"0","num_feature":"9","num_nodes":"7","size_leaf_vector":"1"}},{"base_weights":[5.3515136E-3,3.6800645E-2,-8.07804E-2,2.212097E-2,-5.5587705E-2],"categories":[],"categories_nodes":[],"categories_segments":[],"categories_sizes":[],"default_left":[0,0,0,0,0],"id":43,"left_children":[1,-1,3,-1,-1],"loss_changes":[6.8883896E-2,0E0,7.7748194E-2,0E0,0E0],"parents":[2147483647,0,0,2,2],"right_children":[2,-1,4,-1,-1],"split_conditions":[1.3656287E-1,3.6800645E-2,-2.841044E-1,2.212097E-2,-5.5587705E-2],"split_indices":[1,0,5,0,0],"split_type":[0,0,0,0,0],"sum_hessian":[4.836323E0,1.8679101E0,2.9684126E0,1.3164939E0,1.6519189E0],"tree_param":{"num_deleted":"0","num_feature":"9","num_nodes":"5","size_leaf_vector":"1"}},{"base_weights":[4.2930837E-3,-9.634014E-2,3.9988216E-2,2.3170013E-2,-6.288044E-2],"categories":[],"categories_nodes":[],"categories_segments":[],"categories_sizes":[],"default_left":[0,0,0,0,0],"id":44,"left_children":[1,3,-1,-1,-1],"loss_changes":[8.83108E-2,9.18029E-2,0E0,0E0,0E0],"parents":[2147483647,0,0,1,1],"right_children":[2,4,-1,-1,-1],"split_conditions":[-2.968674E-1,-6.3035375E-1,3.9988216E-2,2.3170013E-2,-6.288044E-2],"split_indices":[3,6,0,0,0],"split_type":[0,0,0,0,0],"sum_hessian":[4.8134727E0,2.846281E0,1.9671917E0,1.2495047E0,1.5967762E0],"tree_param":{"num_deleted":"0","num_feature":"9","num_nodes":"5","size_leaf_vector":"1"}},{"base_weights":[2.9960345E-3,-7.501908E-2,4.602535E-2,4.3245926E-2,-6.638496E-2,-3.352079E-2,5.9326164E-2],"categories":[],"categories_nodes":[],"categories_segments":[],"categories_sizes":[],"default_left":[0,0,0,0,0,0,0],"id":45,"left_children":[1,3,-1,5,-1,-1,-1],"loss_changes":[7.932794E-2,8.701297E-2,0E0,1.01404436E-1,0E0,0E0,0E0],"parents":[2147483647,0,0,1,1,3,3],"right_children":[2,4,-1,6,-1,-1,-1],"split_conditions":[-2.975993E-1,-4.1272536E-1,4.602535E-2,-5.55355E-1,-6.638496E-2,-3.352079E-2,5.9326164E-2],"split_indices":[7,4,0,6,0,0,0],"split_type":[0,0,0,0,0,0,0],"sum_hessian":[4.779094E0,3.477033E0,1.3020613E0,2.3119698E0,1.1650631E0,1.2924162E0,1.0195534E0],"tree_param":{"num_deleted":"0","num_feature":"9","num_nodes":"7","size_leaf_vector":"1"}},{"base_weights":[3.0566535E-3,3.6071744E-2,-8.2459226E-2,-5.9354376E-2,1.5096723E-2],"categories":[],"categories_nodes":[],"categories_segments":[],"categories_sizes":[],"default_left":[0,0,0,0,0],"id":46,"left_children":[1,-1,3,-1,-1],"loss_changes":[6.729098E-2,0E0,6.97597E-2,0E0,0E0],"parents":[2147483647,0,0,2,2],"right_children":[2,-1,4,-1,-1],"split_conditions":[1.3656287E-1,3.6071744E-2,-4.9775165E-1,-5.9354376E-2,1.5096723E-2],"split_indices":[1,0,8,0,0],"split_type":[0,0,0,0,0],"sum_hessian":[4.7256126E0,1.8223711E0,2.9032416E0,1.2911731E0,1.6120685E0],"tree_param":{"num_deleted":"0","num_feature":"9","num_nodes":"5","size_leaf_vector":"1"}},{"base_weights":[6.292352E-4,-6.961524E-2,4.407823E-2,3.8738403E-2,-1.6504948E-1,1.7462458E-2,-1.01042025E-1],"categories":[],"categories_nodes":[],"categories_segments":[],"categories_sizes":[],"default_left":[0,0,0,0,0,0,0],"id":47,"left_children":[1,3,-1,-1,5,-1,-1],"loss_changes":[6.874732E-2,1.0715065E-1,0E0,0E0,1.5368013E-1,0E0,0E0],"parents":[2147483647,0,0,1,1,4,4],"right_children":[2,4,-1,-1,6,-1,-1],"split_conditions":[-1.4554827E-1,-4.771507E-1,4.407823E-2,3.8738403E-2,9.85073E-2,1.7462458E-2,-1.01042025E-1],"split_indices":[3,2,0,0,1,0,0],"split_type":[0,0,0,0,0,0,0],"sum_hessian":[4.6943645E0,3.5256793E0,1.1686852E0,1.0292315E0,2.4964478E0,1.3729408E0,1.123507E0],"tree_param":{"num_deleted":"0","num_feature":"9","num_nodes":"7","size_leaf_vector":"1"}},{"base_weights":[-1.669514E-4,-7.749297E-2,4.7527142E-2,2.1689124E-2,-5.970178E-2],"categories":[],"categories_nodes":[],"categories_segments":[],"categories_sizes":[],"default_left":[0,0,0,0,0],"id":48,"left_children":[1,3,-1,-1,-1],"loss_changes":[8.1090875E-2,9.5269464E-2,0E0,0E0,0E0],"parents":[2147483647,0,0,1,1],"right_children":[2,4,-1,-1,-1],"split_conditions":[2.7512798E-1,-4.9437177E-1,4.7527142E-2,2.1689124E-2,-5.970178E-2],"split_indices":[2,7,0,0,0],"split_type":[0,0,0,0,0],"sum_hessian":[4.611439E0,3.4437118E0,1.1677274E0,1.7237976E0,1.7199142E0],"tree_param":{"num_deleted":"0","num_feature":"9","num_nodes":"5","size_leaf_vector":"1"}},{"base_weights":[1.5245739E-3,-6.949456E-2,4.5955706E-2,4.3524925E-2,-6.268702E-2,-3.4682322E-2,5.9780933E-2],"categories":[],"categories_nodes":[],"categories_segments":[],"categories_sizes":[],"default_left":[0,0,0,0,0,0,0],"id":49,"left_children":[1,3,-1,5,-1,-1,-1],"loss_changes":[7.0823185E-2,7.9915136E-2,0E0,1.0505902E-1,0E0,0E0,0E0],"parents":[2147483647,0,0,1,1,3,3],"right_children":[2,4,-1,6,-1,-1,-1],"split_conditions":[-2.2652812E-1,-4.1272536E-1,4.5955706E-2,-5.5221695E-1,-6.268702E-2,-3.4682322E-2,5.9780933E-2],"split_indices":[7,4,0,5,0,0,0],"split_type":[0,0,0,0,0,0,0],"sum_hessian":[4.587086E0,3.4931214E0,1.0939647E0,2.3094568E0,1.1836646E0,1.2697735E0,1.0396835E0],"tree_param":{"num_deleted":"0","num_feature":"9","num_nodes":"7","size_leaf_vector":"1"}},{"base_weights":[2.5825317E-3,-7.943266E-2,3.6698557E-2,-6.849168E-2,2.1268211E-2],"categories":[],"categories_nodes":[],"categories_segments":[],"categories_sizes":[],"default_left":[0,0,0,0,0],"id":50,"left_children":[1,3,-1,-1,-1],"loss_changes":[6.4081185E-2,1.03279114E-1,0E0,0E0,0E0],"parents":[2147483647,0,0,1,1],"right_children":[2,4,-1,-1,-1],"split_conditions":[-2.810684E-1,-4.2533794E-1,3.6698557E-2,-6.849168E-2,2.1268211E-2],"split_indices":[6,0,0,0,0],"split_type":[0,0,0,0,0],"sum_hessian":[4.5355215E0,2.8916554E0,1.6438658E0,1.1922277E0,1.6994278E0],"tree_param":{"num_deleted":"0","num_feature":"9","num_nodes":"5","size_leaf_vector":"1"}},{"base_weights":[-2.4977996E-4,1.0571052E-1,-9.260383E-2,-1.7686883E-2,6.580856E-2,1.6958488E-2,-6.8718545E-2],"categories":[],"categories_nodes":[],"categories_segments":[],"categories_sizes":[],"default_left":[0,0,0,0,0,0,0],"id":51,"left_children":[1,3,5,-1,-1,-1,-1],"loss_changes":[6.353056E-2,6.953374E-2,8.3509035E-2,0E0,0E0,0E0,0E0],"parents":[2147483647,0,0,1,1,2,2],"right_children":[2,4,6,-1,-1,-1,-1],"split_conditions":[5.169175E-1,-5.475079E-1,-3.0607322E-1,-1.7686883E-2,6.580856E-2,1.6958488E-2,-6.8718545E-2],"split_indices":[0,5,8,0,0,0,0],"split_type":[0,0,0,0,0,0,0],"sum_hessian":[4.4917336E0,2.024429E0,2.4673047E0,1.0231963E0,1.0012327E0,1.4587797E0,1.0085249E0],"tree_param":{"num_deleted":"0","num_feature":"9","num_nodes":"7","size_leaf_vector":"1"}},{"base_weights":[-8.3086075E-4,-6.527504E-2,4.0084112E-2,1.803191E-2,-5.912218E-2],"categories":[],"categories_nodes":[],"categories_segments":[],"categories_sizes":[],"default_left":[0,0,0,0,0],"id":52,"left_children":[1,3,-1,-1,-1],"loss_changes":[5.588169E-2,8.3750024E-2,0E0,0E0,0E0],"parents":[2147483647,0,0,1,1],"right_children":[2,4,-1,-1,-1],"split_conditions":[-1.4554827E-1,-4.4225082E-1,4.0084112E-2,1.803191E-2,-5.912218E-2],"split_indices":[3,3,0,0,0],"split_type":[0,0,0,0,0],"sum_hessian":[4.4431124E0,3.3512294E0,1.0918828E0,1.9961902E0,1.3550391E0],"tree_param":{"num_deleted":"0","num_feature":"9","num_nodes":"5","size_leaf_vector":"1"}},{"base_weights":[-8.279889E-4,3.299811E-2,-8.150602E-2,2.0690575E-2,-5.5033673E-2],"categories":[],"categories_nodes":[],"categories_segments":[],"categories_sizes":[],"default_left":[0,0,0,0,0],"id":53,"left_children":[1,-1,3,-1,-1],"loss_changes":[5.7394344E-2,0E0,6.954537E-2,0E0,0E0],"parents":[2147483647,0,0,2,2],"right_children":[2,-1,4,-1,-1],"split_conditions":[1.3656287E-1,3.299811E-2,-2.841044E-1,2.0690575E-2,-5.5033673E-2],"split_indices":[1,0,5,0,0],"split_type":[0,0,0,0,0],"sum_hessian":[4.4166055E0,1.7076129E0,2.7089927E0,1.2246717E0,1.484321E0],"tree_param":{"num_deleted":"0","num_feature":"9","num_nodes":"5","size_leaf_vector":"1"}},{"base_weights":[-8.872272E-4,-9.424338E-2,3.264924E-2,1.08736195E-2,-5.5461682E-2],"categories":[],"categories_nodes":[],"categories_segments":[],"categories_sizes":[],"default_left":[0,0,0,0,0],"id":54,"left_children":[1,3,-1,-1,-1],"loss_changes":[6.55214E-2,4.7512487E-2,0E0,0E0,0E0],"parents":[2147483647,0,0,1,1],"right_children":[2,4,-1,-1,-1],"split_conditions":[-4.9775165E-1,9.85073E-2,3.264924E-2,1.08736195E-2,-5.5461682E-2],"split_indices":[8,1,0,0,0],"split_type":[0,0,0,0,0],"sum_hessian":[4.3954515E0,2.4510007E0,1.9444511E0,1.2505332E0,1.2004675E0],"tree_param":{"num_deleted":"0","num_feature":"9","num_nodes":"5","size_leaf_vector":"1"}},{"base_weights":[-2.9217831E-3,-8.64758E-2,3.231995E-2,2.389376E-2,-5.809221E-2],"categories":[],"categories_nodes":[],"categories_segments":[],"categories_sizes":[],"default_left":[0,0,0,0,0],"id":55,"left_children":[1,3,-1,-1,-1],"loss_changes":[5.896075E-2,7.976259E-2,0E0,0E0,0E0],"parents":[2147483647,0,0,1,1],"right_children":[2,4,-1,-1,-1],"split_conditions":[-2.968674E-1,-6.3035375E-1,3.231995E-2,2.389376E-2,-5.809221E-2],"split_indices":[3,6,0,0,0],"split_type":[0,0,0,0,0],"sum_hessian":[4.3694825E0,2.6141121E0,1.7553704E0,1.1257783E0,1.4883338E0],"tree_param":{"num_deleted":"0","num_feature":"9","num_nodes":"5","size_leaf_vector":"1"}},{"base_weights":[-2.4919647E-3,-6.35775E-2,3.8928002E-2,1.5836896E-2,-5.519985E-2],"categories":[],"categories_nodes":[],"categories_segments":[],"categories_sizes":[],"default_left":[0,0,0,0,0],"id":56,"left_children":[1,3,-1,-1,-1],"loss_changes":[5.1403888E-2,7.032226E-2,0E0,0E0,0E0],"parents":[2147483647,0,0,1,1],"right_children":[2,4,-1,-1,-1],"split_conditions":[-2.2652812E-1,8.284372E-1,3.8928002E-2,1.5836896E-2,-5.519985E-2],"split_indices":[7,0,0,0,0],"split_type":[0,0,0,0,0],"sum_hessian":[4.341721E0,3.3251467E0,1.0165741E0,1.9766663E0,1.3484803E0],"tree_param":{"num_deleted":"0","num_feature":"9","num_nodes":"5","size_leaf_vector":"1"}},{"base_weights":[-1.9188203E-3,-5.91907E-2,3.541704E-2,2.4307098E-2,-4.4816557E-2],"categories":[],"categories_nodes":[],"categories_segments":[],"categories_sizes":[],"default_left":[0,0,0,0,0],"id":57,"left_children":[1,3,-1,-1,-1],"loss_changes":[4.3477923E-2,6.5988906E-2,0E0,0E0,0E0],"parents":[2147483647,0,0,1,1],"right_children":[2,4,-1,-1,-1],"split_conditions":[-1.4554827E-1,-4.626085E-1,3.541704E-2,2.4307098E-2,-4.4816557E-2],"split_indices":[3,4,0,0,0],"split_type":[0,0,0,0,0],"sum_hessian":[4.3105574E0,3.2606764E0,1.0498812E0,1.3162503E0,1.9444261E0],"tree_param":{"num_deleted":"0","num_feature":"9","num_nodes":"5","size_leaf_vector":"1"}},{"base_weights":[1.4346208E-3,2.7883215E-2,-7.769053E-2,1.4977886E-2,-4.6298437E-2],"categories":[],"categories_nodes":[],"categories_segments":[],"categories_sizes":[],"default_left":[0,0,0,0,0],"id":58,"left_children":[1,-1,3,-1,-1],"loss_changes":[4.5506287E-2,0E0,4.076559E-2,0E0,0E0],"parents":[2147483647,0,0,2,2],"right_children":[2,-1,4,-1,-1],"split_conditions":[5.169175E-1,2.7883215E-2,-4.1803077E-1,1.4977886E-2,-4.6298437E-2],"split_indices":[0,0,5,0,0],"split_type":[0,0,0,0,0],"sum_hessian":[4.287531E0,1.9071904E0,2.3803403E0,1.0238941E0,1.3564464E0],"tree_param":{"num_deleted":"0","num_feature":"9","num_nodes":"5","size_leaf_vector":"1"}},{"base_weights":[3.2123155E-4,-7.380033E-2,2.919477E-2,1.8011201E-2,-4.75168E-2],"categories":[],"categories_nodes":[],"categories_segments":[],"categories_sizes":[],"default_left":[0,0,0,0,0],"id":59,"left_children":[1,3,-1,-1,-1],"loss_changes":[4.5085862E-2,4.978078E-2,0E0,0E0,0E0],"parents":[2147483647,0,0,1,1],"right_children":[2,4,-1,-1,-1],"split_conditions":[-2.968674E-1,-6.3035375E-1,2.919477E-2,1.8011201E-2,-4.75168E-2],"split_indices":[3,6,0,0,0],"split_type":[0,0,0,0,0],"sum_hessian":[4.2721972E0,2.557178E0,1.7150191E0,1.1027079E0,1.4544702E0],"tree_param":{"num_deleted":"0","num_feature":"9","num_nodes":"5","size_leaf_vector":"1"}},{"base_weights":[1.2226432E-4,-5.8162525E-2,3.3905264E-2,4.2920638E-2,-5.587643E-2,-2.6013734E-2,4.7519162E-2],"categories":[],"categories_nodes":[],"categories_segments":[],"categories_sizes":[],"default_left":[0,0,0,0,0,0,0],"id":60,"left_children":[1,3,-1,5,-1,-1,-1],"loss_changes":[4.1135333E-2,6.1395746E-2,0E0,6.040883E-2,0E0,0E0,0E0],"parents":[2147483647,0,0,1,1,3,3],"right_children":[2,4,-1,6,-1,-1,-1],"split_conditions":[-2.975993E-1,-4.1272536E-1,3.3905264E-2,-5.650683E-1,-5.587643E-2,-2.6013734E-2,4.7519162E-2],"split_indices":[7,4,0,6,0,0,0],"split_type":[0,0,0,0,0,0,0],"sum_hessian":[4.2525144E0,3.1243215E0,1.128193E0,2.1179101E0,1.0064113E0,1.1151463E0,1.0027639E0],"tree_param":{"num_deleted":"0","num_feature":"9","num_nodes":"7","size_leaf_vector":"1"}},{"base_weights":[-2.9327946E-5,2.6735159E-2,-7.690596E-2,1.1985181E-2,-4.6879116E-2],"categories":[],"categories_nodes":[],"categories_segments":[],"categories_sizes":[],"default_left":[0,0,0,0,0],"id":61,"left_children":[1,-1,3,-1,-1],"loss_changes":[4.2626392E-2,0E0,3.7212133E-2,0E0,0E0],"parents":[2147483647,0,0,2,2],"right_children":[2,-1,4,-1,-1],"split_conditions":[5.169175E-1,2.6735159E-2,4.492524E-1,1.1985181E-2,-4.6879116E-2],"split_indices":[0,0,1,0,0],"split_type":[0,0,0,0,0],"sum_hessian":[4.2197967E0,1.880239E0,2.3395576E0,1.147058E0,1.1924998E0],"tree_param":{"num_deleted":"0","num_feature":"9","num_nodes":"5","size_leaf_vector":"1"}},{"base_weights":[-1.6577982E-3,-5.774342E-2,3.2168757E-2,1.3292745E-2,-5.0834406E-2],"categories":[],"categories_nodes":[],"categories_segments":[],"categories_sizes":[],"default_left":[0,0,0,0,0],"id":62,"left_children":[1,3,-1,-1,-1],"loss_changes":[3.7922613E-2,5.4011986E-2,0E0,0E0,0E0],"parents":[2147483647,0,0,1,1],"right_children":[2,4,-1,-1,-1],"split_conditions":[-2.975993E-1,8.284372E-1,3.2168757E-2,1.3292745E-2,-5.0834406E-2],"split_indices":[7,0,0,0,0],"split_type":[0,0,0,0,0],"sum_hessian":[4.195818E0,3.0793812E0,1.1164368E0,1.9245039E0,1.1548773E0],"tree_param":{"num_deleted":"0","num_feature":"9","num_nodes":"5","size_leaf_vector":"1"}},{"base_weights":[-2.2725558E-3,-7.073053E-2,2.68119E-2,2.4623096E-2,-5.2787334E-2],"categories":[],"categories_nodes":[],"categories_segments":[],"categories_sizes":[],"default_left":[0,0,0,0,0],"id":63,"left_children":[1,3,-1,-1,-1],"loss_changes":[3.8768396E-2,7.101969E-2,0E0,0E0,0E0],"parents":[2147483647,0,0,1,1],"right_children":[2,4,-1,-1,-1],"split_conditions":[-1.1808898E-1,-5.8022916E-1,2.68119E-2,2.4623096E-2,-5.2787334E-2],"split_indices":[2,2,0,0,0],"split_type":[0,0,0,0,0],"sum_hessian":[4.171768E0,2.5186143E0,1.6531539E0,1.1168151E0,1.4017991E0],"tree_param":{"num_deleted":"0","num_feature":"9","num_nodes":"5","size_leaf_vector":"1"}},{"base_weights":[-1.933224E-3,-6.868027E-2,2.9567761E-2,-6.1968718E-2,2.1749808E-2],"categories":[],"categories_nodes":[],"categories_segments":[],"categories_sizes":[],"default_left":[0,0,0,0,0],"id":64,"left_children":[1,3,-1,-1,-1],"loss_changes":[4.131226E-2,8.668576E-2,0E0,0E0,0E0],"parents":[2147483647,0,0,1,1],"right_children":[2,4,-1,-1,-1],"split_conditions":[-2.810684E-1,-4.2533794E-1,2.9567761E-2,-6.1968718E-2,2.1749808E-2],"split_indices":[6,0,0,0,0],"split_type":[0,0,0,0,0],"sum_hessian":[4.1498795E0,2.6838377E0,1.4660418E0,1.1234806E0,1.5603571E0],"tree_param":{"num_deleted":"0","num_feature":"9","num_nodes":"5","size_leaf_vector":"1"}},{"base_weights":[-3.5760615E-3,5.618423E-2,-3.5287574E-2,-3.4137335E-2,8.026653E-2],"categories":[],"categories_nodes":[],"categories_segments":[],"categories_sizes":[],"default_left":[0,0,0,0,0],"id":65,"left_children":[1,3,-1,-1,-1],"loss_changes":[4.148094E-2,1.7538103E-1,0E0,0E0,0E0],"parents":[2147483647,0,0,1,1],"right_children":[2,4,-1,-1,-1],"split_conditions":[-3.0607322E-1,2.763556E-1,-3.5287574E-2,-3.4137335E-2,8.026653E-2],"split_indices":[8,1,0,0,0],"split_type":[0,0,0,0,0],"sum_hessian":[4.1165257E0,3.0340772E0,1.0824485E0,1.937597E0,1.0964803E0],"tree_param":{"num_deleted":"0","num_feature":"9","num_nodes":"5","size_leaf_vector":"1"}},{"base_weights":[-2.2853687E-4,3.361798E-2,-8.269482E-2,1.4847081E-2,-5.561721E-2],"categories":[],"categories_nodes":[],"categories_segments":[],"categories_sizes":[],"default_left":[0,0,0,0,0],"id":66,"left_children":[1,-1,3,-1,-1],"loss_changes":[5.627586E-2,0E0,5.671901E-2,0E0,0E0],"parents":[2147483647,0,0,2,2],"right_children":[2,-1,4,-1,-1],"split_conditions":[1.3656287E-1,3.361798E-2,-4.771507E-1,1.4847081E-2,-5.561721E-2],"split_indices":[1,0,2,0,0],"split_type":[0,0,0,0,0],"sum_hessian":[4.076568E0,1.5742146E0,2.5023534E0,1.3206135E0,1.1817399E0],"tree_param":{"num_deleted":"0","num_feature":"9","num_nodes":"5","size_leaf_vector":"1"}},{"base_weights":[-1.6712898E-3,6.685999E-2,-3.2692675E-2,-3.7787452E-2,5.9703194E-2],"categories":[],"categories_nodes":[],"categories_segments":[],"categories_sizes":[],"default_left":[0,0,0,0,0],"id":67,"left_children":[1,3,-1,-1,-1],"loss_changes":[4.4405352E-2,1.19350284E-1,0E0,0E0,0E0],"parents":[2147483647,0,0,1,1],"right_children":[2,4,-1,-1,-1],"split_conditions":[4.492524E-1,-5.5195713E-1,-3.2692675E-2,-3.7787452E-2,5.9703194E-2],"split_indices":[1,5,0,0,0],"split_type":[0,0,0,0,0],"sum_hessian":[4.0476966E0,2.7001336E0,1.3475633E0,1.1170821E0,1.5830513E0],"tree_param":{"num_deleted":"0","num_feature":"9","num_nodes":"5","size_leaf_vector":"1"}},{"base_weights":[-3.2357837E-3,-7.406877E-2,2.7071627E-2,1.6290825E-2,-4.6435155E-2],"categories":[],"categories_nodes":[],"categories_segments":[],"categories_sizes":[],"default_left":[0,0,0,0,0],"id":68,"left_children":[1,3,-1,-1,-1],"loss_changes":[3.9786376E-2,4.3566544E-2,0E0,0E0,0E0],"parents":[2147483647,0,0,1,1],"right_children":[2,4,-1,-1,-1],"split_conditions":[-1.1808898E-1,-5.8022916E-1,2.7071627E-2,1.6290825E-2,-4.6435155E-2],"split_indices":[2,2,0,0,0],"split_type":[0,0,0,0,0],"sum_hessian":[3.9995618E0,2.3934567E0,1.606105E0,1.0502844E0,1.3431724E0],"tree_param":{"num_deleted":"0","num_feature":"9","num_nodes":"5","size_leaf_vector":"1"}},{"base_weights":[-2.9424136E-3,-5.9583142E-2,3.183391E-2,1.5478868E-2,-5.2201103E-2],"categories":[],"categories_nodes":[],"categories_segments":[],"categories_sizes":[],"default_left":[0,0,0,0,0],"id":69,"left_children":[1,3,-1,-1,-1],"loss_changes":[3.710551E-2,5.8849767E-2,0E0,0E0,0E0],"parents":[2147483647,0,0,1,1],"right_children":[2,4,-1,-1,-1],"split_conditions":[-2.975993E-1,-6.589723E-1,3.183391E-2,1.5478868E-2,-5.2201103E-2],"split_indices":[7,7,0,0,0],"split_type":[0,0,0,0,0],"sum_hessian":[3.9834971E0,2.9203713E0,1.0631258E0,1.7596406E0,1.1607308E0],"tree_param":{"num_deleted":"0","num_feature":"9","num_nodes":"5","size_leaf_vector":"1"}},{"base_weights":[-3.1053084E-3,-6.55885E-2,2.7146554E-2,-5.550033E-2,1.7999656E-2],"categories":[],"categories_nodes":[],"categories_segments":[],"categories_sizes":[],"default_left":[0,0,0,0,0],"id":70,"left_children":[1,3,-1,-1,-1],"loss_changes":[3.4972854E-2,6.444826E-2,0E0,0E0,0E0],"parents":[2147483647,0,0,1,1],"right_children":[2,4,-1,-1,-1],"split_conditions":[-2.810684E-1,-4.2533794E-1,2.7146554E-2,-5.550033E-2,1.7999656E-2],"split_indices":[6,0,0,0,0],"split_type":[0,0,0,0,0],"sum_hessian":[3.9653986E0,2.5573409E0,1.4080577E0,1.0683917E0,1.4889492E0],"tree_param":{"num_deleted":"0","num_feature":"9","num_nodes":"5","size_leaf_vector":"1"}},{"base_weights":[-4.380587E-3,3.1231372E-2,-8.1690304E-2,1.743137E-2,-5.1599786E-2],"categories":[],"categories_nodes":[],"categories_segments":[],"categories_sizes":[],"default_left":[0,0,0,0,0],"id":71,"left_children":[1,-1,3,-1,-1],"loss_changes":[4.9924072E-2,0E0,5.347289E-2,0E0,0E0],"parents":[2147483647,0,0,2,2],"right_children":[2,-1,4,-1,-1],"split_conditions":[1.3656287E-1,3.1231372E-2,-2.841044E-1,1.743137E-2,-5.1599786E-2],"split_indices":[1,0,5,0,0],"split_type":[0,0,0,0,0],"sum_hessian":[3.9385898E0,1.4946398E0,2.4439502E0,1.0991343E0,1.3448159E0],"tree_param":{"num_deleted":"0","num_feature":"9","num_nodes":"5","size_leaf_vector":"1"}},{"base_weights":[-3.7319388E-3,-6.863155E-2,2.8163176E-2,-5.1420886E-2,1.3300708E-2],"categories":[],"categories_nodes":[],"categories_segments":[],"categories_sizes":[],"default_left":[0,0,0,0,0],"id":72,"left_children":[1,3,-1,-1,-1],"loss_changes":[3.760677E-2,4.861089E-2,0E0,0E0,0E0],"parents":[2147483647,0,0,1,1],"right_children":[2,4,-1,-1,-1],"split_conditions":[-2.810684E-1,-4.2533794E-1,2.8163176E-2,-5.1420886E-2,1.3300708E-2],"split_indices":[6,0,0,0,0],"split_type":[0,0,0,0,0],"sum_hessian":[3.9194665E0,2.5325E0,1.3869663E0,1.0552298E0,1.4772704E0],"tree_param":{"num_deleted":"0","num_feature":"9","num_nodes":"5","size_leaf_vector":"1"}},{"base_weights":[-4.7367206E-3,3.0873688E-2,-8.066553E-2,1.4734188E-2,-5.441161E-2],"categories":[],"categories_nodes":[],"categories_segments":[],"categories_sizes":[],"default_left":[0,0,0,0,0],"id":73,"left_children":[1,-1,3,-1,-1],"loss_changes":[4.8317835E-2,0E0,5.375562E-2,0E0,0E0],"parents":[2147483647,0,0,2,2],"right_children":[2,-1,4,-1,-1],"split_conditions":[1.3656287E-1,3.0873688E-2,-4.771507E-1,1.4734188E-2,-5.441161E-2],"split_indices":[1,0,2,0,0],"split_type":[0,0,0,0,0],"sum_hessian":[3.8957691E0,1.4643252E0,2.431444E0,1.2862159E0,1.1452281E0],"tree_param":{"num_deleted":"0","num_feature":"9","num_nodes":"5","size_leaf_vector":"1"}},{"base_weights":[-5.236321E-3,5.794511E-2,-3.0078508E-2,-3.46215E-2,5.352364E-2],"categories":[],"categories_nodes":[],"categories_segments":[],"categories_sizes":[],"default_left":[0,0,0,0,0],"id":74,"left_children":[1,3,-1,-1,-1],"loss_changes":[3.5044856E-2,9.49018E-2,0E0,0E0,0E0],"parents":[2147483647,0,0,1,1],"right_children":[2,4,-1,-1,-1],"split_conditions":[4.492524E-1,-5.5195713E-1,-3.0078508E-2,-3.46215E-2,5.352364E-2],"split_indices":[1,5,0,0,0],"split_type":[0,0,0,0,0],"sum_hessian":[3.8694155E0,2.558505E0,1.3109105E0,1.0662329E0,1.4922721E0],"tree_param":{"num_deleted":"0","num_feature":"9","num_nodes":"5","size_leaf_vector":"1"}},{"base_weights":[-5.9404466E-3,-7.465929E-2,2.5580859E-2,1.5105322E-2,-4.7496255E-2],"categories":[],"categories_nodes":[],"categories_segments":[],"categories_sizes":[],"default_left":[0,0,0,0,0],"id":75,"left_children":[1,3,-1,-1,-1],"loss_changes":[3.663861E-2,4.2356085E-2,0E0,0E0,0E0],"parents":[2147483647,0,0,1,1],"right_children":[2,4,-1,-1,-1],"split_conditions":[-1.1808898E-1,-4.7677872E-1,2.5580859E-2,1.5105322E-2,-4.7496255E-2],"split_indices":[2,7,0,0,0],"split_type":[0,0,0,0,0],"sum_hessian":[3.829803E0,2.2876859E0,1.542117E0,1.0768187E0,1.2108672E0],"tree_param":{"num_deleted":"0","num_feature":"9","num_nodes":"5","size_leaf_vector":"1"}},{"base_weights":[-5.626872E-3,-6.555535E-2,3.029359E-2,1.04183005E-2,-4.9515314E-2],"categories":[],"categories_nodes":[],"categories_segments":[],"categories_sizes":[],"default_left":[0,0,0,0,0],"id":76,"left_children":[1,3,-1,-1,-1],"loss_changes":[3.7402816E-2,4.2557605E-2,0E0,0E0,0E0],"parents":[2147483647,0,0,1,1],"right_children":[2,4,-1,-1,-1],"split_conditions":[-3.6816996E-1,-6.373826E-1,3.029359E-2,1.04183005E-2,-4.9515314E-2],"split_indices":[7,8,0,0,0],"split_type":[0,0,0,0,0],"sum_hessian":[3.8183675E0,2.690797E0,1.1275704E0,1.6642952E0,1.0265018E0],"tree_param":{"num_deleted":"0","num_feature":"9","num_nodes":"5","size_leaf_vector":"1"}},{"base_weights":[-5.8294176E-3,-6.723927E-2,2.6217785E-2,-5.2385982E-2,1.5122096E-2],"categories":[],"categories_nodes":[],"categories_segments":[],"categories_sizes":[],"default_left":[0,0,0,0,0],"id":77,"left_children":[1,3,-1,-1,-1],"loss_changes":[3.3371523E-2,5.2520238E-2,0E0,0E0,0E0],"parents":[2147483647,0,0,1,1],"right_children":[2,4,-1,-1,-1],"split_conditions":[-2.810684E-1,-4.2533794E-1,2.6217785E-2,-5.2385982E-2,1.5122096E-2],"split_indices":[6,0,0,0,0],"split_type":[0,0,0,0,0],"sum_hessian":[3.8028822E0,2.4606514E0,1.3422308E0,1.0332665E0,1.4273849E0],"tree_param":{"num_deleted":"0","num_feature":"9","num_nodes":"5","size_leaf_vector":"1"}},{"base_weights":[-6.4988434E-3,2.4911983E-2,-7.9951845E-2,4.8878756E-3,-4.0541127E-2],"categories":[],"categories_nodes":[],"categories_segments":[],"categories_sizes":[],"default_left":[0,0,0,0,0],"id":78,"left_children":[1,-1,3,-1,-1],"loss_changes":[3.807196E-2,0E0,1.8852374E-2,0E0,0E0],"parents":[2147483647,0,0,2,2],"right_children":[2,-1,4,-1,-1],"split_conditions":[5.169175E-1,2.4911983E-2,4.492524E-1,4.8878756E-3,-4.0541127E-2],"split_indices":[0,0,1,0,0],"split_type":[0,0,0,0,0],"sum_hessian":[3.7792726E0,1.6443282E0,2.1349442E0,1.0348657E0,1.1000786E0],"tree_param":{"num_deleted":"0","num_feature":"9","num_nodes":"5","size_leaf_vector":"1"}},{"base_weights":[-6.8695187E-3,-7.378169E-2,2.2615077E-2,1.2108104E-2,-4.5938965E-2],"categories":[],"categories_nodes":[],"categories_segments":[],"categories_sizes":[],"default_left":[0,0,0,0,0],"id":79,"left_children":[1,3,-1,-1,-1],"loss_changes":[3.176908E-2,3.4538455E-2,0E0,0E0,0E0],"parents":[2147483647,0,0,1,1],"right_children":[2,4,-1,-1,-1],"split_conditions":[-4.9775165E-1,9.85073E-2,2.2615077E-2,1.2108104E-2,-4.5938965E-2],"split_indices":[8,1,0,0,0],"split_type":[0,0,0,0,0],"sum_hessian":[3.7617035E0,2.1310806E0,1.6306231E0,1.0754302E0,1.0556504E0],"tree_param":{"num_deleted":"0","num_feature":"9","num_nodes":"5","size_leaf_vector":"1"}},{"base_weights":[-7.2432673E-3,-6.761824E-2,2.2280887E-2,1.4898099E-2,-4.430496E-2],"categories":[],"categories_nodes":[],"categories_segments":[],"categories_sizes":[],"default_left":[0,0,0,0,0],"id":80,"left_children":[1,3,-1,-1,-1],"loss_changes":[2.8376855E-2,3.7848823E-2,0E0,0E0,0E0],"parents":[2147483647,0,0,1,1],"right_children":[2,4,-1,-1,-1],"split_conditions":[-1.1808898E-1,-4.7677872E-1,2.2280887E-2,1.4898099E-2,-4.430496E-2],"split_indices":[2,7,0,0,0],"split_type":[0,0,0,0,0],"sum_hessian":[3.7456346E0,2.2497494E0,1.4958851E0,1.0668232E0,1.182926E0],"tree_param":{"num_deleted":"0","num_feature":"9","num_nodes":"5","size_leaf_vector":"1"}},{"base_weights":[-6.6247922E-3,-6.814219E-2,2.636841E-2,-5.2707322E-2,1.5380991E-2],"categories":[],"categories_nodes":[],"categories_segments":[],"categories_sizes":[],"default_left":[0,0,0,0,0],"id":81,"left_children":[1,3,-1,-1,-1],"loss_changes":[3.3525947E-2,5.308357E-2,0E0,0E0,0E0],"parents":[2147483647,0,0,1,1],"right_children":[2,4,-1,-1,-1],"split_conditions":[-2.810684E-1,-4.2533794E-1,2.636841E-2,-5.2707322E-2,1.5380991E-2],"split_indices":[6,0,0,0,0],"split_type":[0,0,0,0,0],"sum_hessian":[3.7357764E0,2.4319954E0,1.3037812E0,1.0315907E0,1.4004046E0],"tree_param":{"num_deleted":"0","num_feature":"9","num_nodes":"5","size_leaf_vector":"1"}},{"base_weights":[-7.0759295E-3,2.1403566E-2,-7.100116E-2,5.5085933E-3,-3.7579603E-2],"categories":[],"categories_nodes":[],"categories_segments":[],"categories_sizes":[],"default_left":[0,0,0,0,0],"id":82,"left_children":[1,-1,3,-1,-1],"loss_changes":[2.8688455E-2,0E0,1.7319422E-2,0E0,0E0],"parents":[2147483647,0,0,2,2],"right_children":[2,-1,4,-1,-1],"split_conditions":[5.169175E-1,2.1403566E-2,-4.771507E-1,5.5085933E-3,-3.7579603E-2],"split_indices":[0,0,2,0,0],"split_type":[0,0,0,0,0],"sum_hessian":[3.712236E0,1.614973E0,2.0972629E0,1.0423399E0,1.054923E0],"tree_param":{"num_deleted":"0","num_feature":"9","num_nodes":"5","size_leaf_vector":"1"}},{"base_weights":[-7.2692037E-3,-2.3321033E-2,1.9876203E-2],"categories":[],"categories_nodes":[],"categories_segments":[],"categories_sizes":[],"default_left":[0,0,0],"id":83,"left_children":[1,-1,-1],"loss_changes":[2.950043E-2,0E0,0E0],"parents":[2147483647,0,0],"right_children":[2,-1,-1],"split_conditions":[2.763556E-1,-2.3321033E-2,1.9876203E-2],"split_indices":[1,0,0],"split_type":[0,0,0],"sum_hessian":[3.6998746E0,1.8599323E0,1.8399423E0],"tree_param":{"num_deleted":"0","num_feature":"9","num_nodes":"3","size_leaf_vector":"1"}},{"base_weights":[-5.835362E-3,-6.8381146E-2,2.3202468E-2,1.31759895E-2,-4.257537E-2],"categories":[],"categories_nodes":[],"categories_segments":[],"categories_sizes":[],"default_left":[0,0,0,0,0],"id":84,"left_children":[1,3,-1,-1,-1],"loss_changes":[2.971291E-2,3.274617E-2,0E0,0E0,0E0],"parents":[2147483647,0,0,1,1],"right_children":[2,4,-1,-1,-1],"split_conditions":[-1.1808898E-1,-4.7677872E-1,2.3202468E-2,1.31759895E-2,-4.257537E-2],"split_indices":[2,7,0,0,0],"split_type":[0,0,0,0,0],"sum_hessian":[3.6948266E0,2.2105002E0,1.4843264E0,1.0340724E0,1.1764278E0],"tree_param":{"num_deleted":"0","num_feature":"9","num_nodes":"5","size_leaf_vector":"1"}},{"base_weights":[-5.4510003E-3,-5.933407E-2,2.6875569E-2,1.0817324E-2,-4.551892E-2],"categories":[],"categories_nodes":[],"categories_segments":[],"categories_sizes":[],"default_left":[0,0,0,0,0],"id":85,"left_children":[1,3,-1,-1,-1],"loss_changes":[2.9309668E-2,3.7128303E-2,0E0,0E0,0E0],"parents":[2147483647,0,0,1,1],"right_children":[2,4,-1,-1,-1],"split_conditions":[-3.6816996E-1,8.284372E-1,2.6875569E-2,1.0817324E-2,-4.551892E-2],"split_indices":[7,0,0,0,0],"split_type":[0,0,0,0,0],"sum_hessian":[3.685598E0,2.5917895E0,1.0938084E0,1.5752276E0,1.0165619E0],"tree_param":{"num_deleted":"0","num_feature":"9","num_nodes":"5","size_leaf_vector":"1"}},{"base_weights":[-5.5631706E-3,-6.2440425E-2,2.4284355E-2,-4.953987E-2,1.5656728E-2],"categories":[],"categories_nodes":[],"categories_segments":[],"categories_sizes":[],"default_left":[0,0,0,0,0],"id":86,"left_children":[1,3,-1,-1,-1],"loss_changes":[2.802269E-2,4.841573E-2,0E0,0E0,0E0],"parents":[2147483647,0,0,1,1],"right_children":[2,4,-1,-1,-1],"split_conditions":[-2.810684E-1,-4.2533794E-1,2.4284355E-2,-4.953987E-2,1.5656728E-2],"split_indices":[6,0,0,0,0],"split_type":[0,0,0,0,0],"sum_hessian":[3.6678655E0,2.380818E0,1.2870476E0,1.023406E0,1.3574119E0],"tree_param":{"num_deleted":"0","num_feature":"9","num_nodes":"5","size_leaf_vector":"1"}},{"base_weights":[-6.0551343E-3,2.4386493E-2,-6.743917E-2,1.806134E-2,-5.185132E-2],"categories":[],"categories_nodes":[],"categories_segments":[],"categories_sizes":[],"default_left":[0,0,0,0,0],"id":87,"left_children":[1,-1,3,-1,-1],"loss_changes":[3.0395867E-2,0E0,5.4472405E-2,0E0,0E0],"parents":[2147483647,0,0,2,2],"right_children":[2,-1,4,-1,-1],"split_conditions":[1.3656287E-1,2.4386493E-2,-4.771507E-1,1.806134E-2,-5.185132E-2],"split_indices":[1,0,2,0,0],"split_type":[0,0,0,0,0],"sum_hessian":[3.6468124E0,1.371312E0,2.2755003E0,1.2230772E0,1.0524232E0],"tree_param":{"num_deleted":"0","num_feature":"9","num_nodes":"5","size_leaf_vector":"1"}},{"base_weights":[-6.3787056E-3,-7.163775E-2,2.424618E-2,1.0834182E-2,-4.1681267E-2],"categories":[],"categories_nodes":[],"categories_segments":[],"categories_sizes":[],"default_left":[0,0,0,0,0],"id":88,"left_children":[1,3,-1,-1,-1],"loss_changes":[3.210859E-2,2.8044596E-2,0E0,0E0,0E0],"parents":[2147483647,0,0,1,1],"right_children":[2,4,-1,-1,-1],"split_conditions":[-1.1808898E-1,-4.7677872E-1,2.424618E-2,1.0834182E-2,-4.1681267E-2],"split_indices":[2,7,0,0,0],"split_type":[0,0,0,0,0],"sum_hessian":[3.6250043E0,2.1754098E0,1.4495944E0,1.0145044E0,1.1609054E0],"tree_param":{"num_deleted":"0","num_feature":"9","num_nodes":"5","size_leaf_vector":"1"}},{"base_weights":[-5.937768E-3,-2.2345534E-2,1.960482E-2],"categories":[],"categories_nodes":[],"categories_segments":[],"categories_sizes":[],"default_left":[0,0,0],"id":89,"left_children":[1,-1,-1],"loss_changes":[2.7424444E-2,0E0,0E0],"parents":[2147483647,0,0],"right_children":[2,-1,-1],"split_conditions":[2.763556E-1,-2.2345534E-2,1.960482E-2],"split_indices":[1,0,0],"split_type":[0,0,0],"sum_hessian":[3.6161213E0,1.8206172E0,1.7955041E0],"tree_param":{"num_deleted":"0","num_feature":"9","num_nodes":"3","size_leaf_vector":"1"}},{"base_weights":[-4.762539E-3,5.0015166E-2,-2.579922E-2,-2.7333282E-2,5.4980498E-2],"categories":[],"categories_nodes":[],"categories_segments":[],"categories_sizes":[],"default_left":[0,0,0,0,0],"id":90,"left_children":[1,3,-1,-1,-1],"loss_changes":[2.4821162E-2,8.038196E-2,0E0,0E0,0E0],"parents":[2147483647,0,0,1,1],"right_children":[2,4,-1,-1,-1],"split_conditions":[4.492524E-1,-5.208115E-1,-2.579922E-2,-2.7333282E-2,5.4980498E-2],"split_indices":[1,5,0,0,0],"split_type":[0,0,0,0,0],"sum_hessian":[3.6113796E0,2.3864677E0,1.2249119E0,1.3125867E0,1.073881E0],"tree_param":{"num_deleted":"0","num_feature":"9","num_nodes":"5","size_leaf_vector":"1"}},{"base_weights":[-2.863113E-3,-6.4180784E-2,2.3365747E-2,-3.171178E-2,3.5980293E-3],"categories":[],"categories_nodes":[],"categories_segments":[],"categories_sizes":[],"default_left":[0,0,0,0,0],"id":91,"left_children":[1,3,-1,-1,-1],"loss_changes":[2.7657147E-2,1.1229471E-2,0E0,0E0,0E0],"parents":[2147483647,0,0,1,1],"right_children":[2,4,-1,-1,-1],"split_conditions":[-1.1808898E-1,4.141632E-1,2.3365747E-2,-3.171178E-2,3.5980293E-3],"split_indices":[2,1,0,0,0],"split_type":[0,0,0,0,0],"sum_hessian":[3.5762146E0,2.1492994E0,1.426915E0,1.1401035E0,1.0091958E0],"tree_param":{"num_deleted":"0","num_feature":"9","num_nodes":"5","size_leaf_vector":"1"}},{"base_weights":[-3.0524062E-3,2.3343258E-2,-6.10636E-2,1.8566422E-2,-4.9543757E-2],"categories":[],"categories_nodes":[],"categories_segments":[],"categories_sizes":[],"default_left":[0,0,0,0,0],"id":92,"left_children":[1,-1,3,-1,-1],"loss_changes":[2.6204407E-2,0E0,5.1467992E-2,0E0,0E0],"parents":[2147483647,0,0,2,2],"right_children":[2,-1,4,-1,-1],"split_conditions":[1.3656287E-1,2.3343258E-2,-4.771507E-1,1.8566422E-2,-4.9543757E-2],"split_indices":[1,0,2,0,0],"split_type":[0,0,0,0,0],"sum_hessian":[3.5732498E0,1.3500599E0,2.22319E0,1.2050568E0,1.0181332E0],"tree_param":{"num_deleted":"0","num_feature":"9","num_nodes":"5","size_leaf_vector":"1"}},{"base_weights":[-3.898961E-3,-5.4389257E-2,2.4826083E-2,1.932133E-2,-4.074302E-2],"categories":[],"categories_nodes":[],"categories_segments":[],"categories_sizes":[],"default_left":[0,0,0,0,0],"id":93,"left_children":[1,3,-1,-1,-1],"loss_changes":[2.4421616E-2,4.2409237E-2,0E0,0E0,0E0],"parents":[2147483647,0,0,1,1],"right_children":[2,4,-1,-1,-1],"split_conditions":[-3.6816996E-1,-7.4291706E-1,2.4826083E-2,1.932133E-2,-4.074302E-2],"split_indices":[7,8,0,0,0],"split_type":[0,0,0,0,0],"sum_hessian":[3.5531864E0,2.4803045E0,1.072882E0,1.0936509E0,1.3866535E0],"tree_param":{"num_deleted":"0","num_feature":"9","num_nodes":"5","size_leaf_vector":"1"}},{"base_weights":[-2.0267991E-3,-5.932292E-2,2.206008E-2,-2.7099287E-2,9.921702E-4],"categories":[],"categories_nodes":[],"categories_segments":[],"categories_sizes":[],"default_left":[0,0,0,0,0],"id":94,"left_children":[1,3,-1,-1,-1],"loss_changes":[2.4013208E-2,6.387043E-3,0E0,0E0,0E0],"parents":[2147483647,0,0,1,1],"right_children":[2,4,-1,-1,-1],"split_conditions":[-1.1808898E-1,4.141632E-1,2.206008E-2,-2.7099287E-2,9.921702E-4],"split_indices":[2,1,0,0,0],"split_type":[0,0,0,0,0],"sum_hessian":[3.5390484E0,2.1350052E0,1.4040432E0,1.1321762E0,1.0028292E0],"tree_param":{"num_deleted":"0","num_feature":"9","num_nodes":"5","size_leaf_vector":"1"}},{"base_weights":[-2.3166141E-3,-5.633894E-2,2.30127E-2,1.8657843E-2,-4.193087E-2],"categories":[],"categories_nodes":[],"categories_segments":[],"categories_sizes":[],"default_left":[0,0,0,0,0],"id":95,"left_children":[1,3,-1,-1,-1],"loss_changes":[2.3690615E-2,4.1043468E-2,0E0,0E0,0E0],"parents":[2147483647,0,0,1,1],"right_children":[2,4,-1,-1,-1],"split_conditions":[-2.810684E-1,-4.626085E-1,2.30127E-2,1.8657843E-2,-4.193087E-2],"split_indices":[6,4,0,0,0],"split_type":[0,0,0,0,0],"sum_hessian":[3.5369513E0,2.271335E0,1.2656165E0,1.0434453E0,1.2278895E0],"tree_param":{"num_deleted":"0","num_feature":"9","num_nodes":"5","size_leaf_vector":"1"}},{"base_weights":[-1.7280163E-3,2.3142125E-2,-2.043775E-2],"categories":[],"categories_nodes":[],"categories_segments":[],"categories_sizes":[],"default_left":[0,0,0],"id":96,"left_children":[1,-1,-1],"loss_changes":[2.8936027E-2,0E0,0E0],"parents":[2147483647,0,0],"right_children":[2,-1,-1],"split_conditions":[5.169175E-1,2.3142125E-2,-2.043775E-2],"split_indices":[0,0,0],"split_type":[0,0,0],"sum_hessian":[3.5220866E0,1.5359126E0,1.9861741E0],"tree_param":{"num_deleted":"0","num_feature":"9","num_nodes":"3","size_leaf_vector":"1"}},{"base_weights":[-6.1547395E-4,5.154798E-2,-2.3561975E-2,-2.6208986E-2,5.4503262E-2],"categories":[],"categories_nodes":[],"categories_segments":[],"categories_sizes":[],"default_left":[0,0,0,0,0],"id":97,"left_children":[1,3,-1,-1,-1],"loss_changes":[2.2398079E-2,7.566588E-2,0E0,0E0,0E0],"parents":[2147483647,0,0,1,1],"right_children":[2,4,-1,-1,-1],"split_conditions":[4.492524E-1,-5.208115E-1,-2.3561975E-2,-2.6208986E-2,5.4503262E-2],"split_indices":[1,5,0,0,0],"split_type":[0,0,0,0,0],"sum_hessian":[3.5142362E0,2.3078346E0,1.2064016E0,1.2752107E0,1.0326239E0],"tree_param":{"num_deleted":"0","num_feature":"9","num_nodes":"5","size_leaf_vector":"1"}},{"base_weights":[7.1471033E-4,-1.9254282E-2,1.947863E-2],"categories":[],"categories_nodes":[],"categories_segments":[],"categories_sizes":[],"default_left":[0,0,0],"id":98,"left_children":[1,-1,-1],"loss_changes":[2.2843948E-2,0E0,0E0],"parents":[2147483647,0,0],"right_children":[2,-1,-1],"split_conditions":[2.763556E-1,-1.9254282E-2,1.947863E-2],"split_indices":[1,0,0],"split_type":[0,0,0],"sum_hessian":[3.481834E0,1.7319827E0,1.7498511E0],"tree_param":{"num_deleted":"0","num_feature":"9","num_nodes":"3","size_leaf_vector":"1"}},{"base_weights":[5.46778E-4,2.4847534E-2,-5.91226E-2,1.44555345E-2,-3.923987E-2],"categories":[],"categories_nodes":[],"categories_segments":[],"categories_sizes":[],"default_left":[0,0,0,0,0],"id":99,"left_children":[1,-1,3,-1,-1],"loss_changes":[2.6881754E-2,0E0,3.0754866E-2,0E0,0E0],"parents":[2147483647,0,0,2,2],"right_children":[2,-1,4,-1,-1],"split_conditions":[1.3656287E-1,2.4847534E-2,-2.747607E-1,1.44555345E-2,-3.923987E-2],"split_indices":[1,0,5,0,0],"split_type":[0,0,0,0,0],"sum_hessian":[3.478039E0,1.2989057E0,2.1791332E0,1.0039155E0,1.1752177E0],"tree_param":{"num_deleted":"0","num_feature":"9","num_nodes":"5","size_leaf_vector":"1"}}]},"name":"gbtree"},"learner_model_param":{"base_score":"5E-1","boost_from_average":"1","num_class":"0","num_feature":"9","num_target":"1"},"objective":{"name":"binary:logistic","reg_loss_param":{"scale_pos_weight":"1"}}},"version":[3,0,0]}